network/conv2d/kernel:0
(9, 9, 3, 32)
[[[[-3.47995721e-02 -2.00656168e-02 -1.57752380e-01 ... -1.17927380e-01
     4.73822914e-02 -5.75041212e-02]
   [ 8.93695876e-02  2.03670993e-01 -8.75935555e-02 ... -6.37695938e-02
    -4.94192690e-02  1.10348381e-01]
   [-6.06220812e-02  1.16534330e-01  3.74820046e-02 ... -7.95286670e-02
    -1.08024493e-01 -1.11849084e-02]]

  [[-5.30824699e-02  4.90462184e-02 -1.16043918e-01 ... -8.55353028e-02
    -9.12650581e-03 -6.64071664e-02]
   [ 1.42041877e-01  2.32881904e-01 -7.69050866e-02 ... -7.09332749e-02
    -4.01550643e-02  1.05956182e-01]
   [ 8.79294798e-03  1.03067189e-01 -2.05778293e-02 ... -9.16351825e-02
    -1.18280813e-01  3.64627652e-02]]

  [[-7.54751563e-02  2.84464993e-02 -1.45902231e-01 ... -9.03842449e-02
     5.42062558e-02 -1.49736907e-02]
   [ 1.93761945e-01  1.86472908e-01 -1.30558923e-01 ... -8.32475871e-02
    -1.11752093e-01  1.07112348e-01]
   [-1.26338452e-02  1.18330441e-01  2.72562951e-02 ... -4.81869653e-02
    -1.24578141e-01  7.08510578e-02]]

  ...

  [[-7.77214020e-03 -7.11051002e-02 -1.34061277e-01 ... -1.68564916e-01
    -3.89381647e-02 -9.09385234e-02]
   [ 1.66761577e-01  4.08663116e-02 -7.03026131e-02 ... -7.07168952e-02
    -1.32844612e-01 -3.08104884e-02]
   [-3.79832685e-02  7.91593567e-02  3.86426710e-02 ... -5.79895675e-02
    -6.72362372e-02 -1.62917804e-02]]

  [[-4.51507345e-02 -6.67179972e-02 -1.08599558e-01 ... -1.46749467e-01
    -2.62783803e-02 -1.04954652e-01]
   [ 1.51421681e-01  3.21475938e-02 -5.89973442e-02 ... -1.09182276e-01
    -6.81990236e-02 -8.39970857e-02]
   [-1.10570909e-02 -6.61850383e-04  4.96438853e-02 ... -1.84338428e-02
    -1.11077629e-01  1.75762381e-02]]

  [[-4.08937931e-02 -2.45267041e-02 -1.00154690e-01 ... -1.46178141e-01
     2.04367638e-02 -9.00693834e-02]
   [ 1.28742427e-01  9.82552916e-02 -3.64011228e-02 ... -6.92301840e-02
    -6.75974414e-02 -4.52588126e-02]
   [-3.75333056e-02  7.88665339e-02  3.34206931e-02 ... -5.28780520e-02
    -3.77663597e-02  3.01127061e-02]]]


 [[[-2.67045945e-02  5.12044616e-02 -1.32852033e-01 ... -9.58302245e-02
    -2.91675766e-04  1.15184980e-02]
   [ 1.00005724e-01  2.09758997e-01 -1.07798688e-01 ... -6.35468513e-02
    -5.54540418e-02  1.30624622e-01]
   [-7.58364573e-02  1.09082200e-01  1.38685079e-02 ... -1.82845667e-02
    -1.14404969e-01  9.63975862e-02]]

  [[-8.36132187e-03  1.19128693e-02 -1.81694478e-01 ... -1.05462871e-01
    -4.40409295e-02  3.09101865e-02]
   [ 1.64459720e-01  1.79701358e-01 -1.19028330e-01 ... -8.58854726e-02
    -1.36884645e-01  1.36489525e-01]
   [-6.14293627e-02  1.08272545e-01  5.70518523e-02 ... -7.16442764e-02
    -8.35598111e-02  3.91917378e-02]]

  [[ 5.94273861e-03 -1.52687114e-02 -1.47881150e-01 ... -1.14367731e-01
    -2.02164762e-02  2.83567999e-02]
   [ 1.40271977e-01  1.19346283e-01 -1.26274049e-01 ... -2.16226578e-02
    -1.51051939e-01  9.53984410e-02]
   [-3.78433429e-02  1.09761626e-01  5.92344142e-02 ...  1.79868899e-02
    -7.93757513e-02  3.29369791e-02]]

  ...

  [[ 3.72189120e-03 -4.97101247e-02 -7.94432610e-02 ... -8.47308338e-02
     3.91970249e-03 -8.40325430e-02]
   [ 2.02989340e-01  1.25248171e-02 -7.74268508e-02 ... -9.66796726e-02
    -1.25779197e-01 -9.60829556e-02]
   [-1.60286073e-02 -1.14106815e-02  7.76656196e-02 ...  1.07624121e-02
    -1.39449999e-01 -9.32703391e-02]]

  [[-3.23821492e-02 -4.67471443e-02 -1.02877073e-01 ... -1.56479478e-01
     1.56731636e-04 -1.25518933e-01]
   [ 1.41148314e-01 -4.51508611e-02 -4.21467535e-02 ... -5.84762879e-02
    -1.15573056e-01 -1.57205164e-01]
   [-6.61223084e-02  6.37913421e-02  1.87038053e-02 ...  1.85213946e-02
    -1.04411982e-01 -7.50576779e-02]]

  [[-3.91619317e-02 -6.98283389e-02 -6.07124753e-02 ... -1.03828765e-01
    -2.51547899e-02 -2.91711725e-02]
   [ 1.52406216e-01  7.12778345e-02  1.39721362e-02 ... -7.28271678e-02
    -1.97571442e-02 -9.65112522e-02]
   [-1.71239283e-02  9.26008448e-02  5.06994762e-02 ... -2.47963965e-02
    -7.78301582e-02 -4.53368053e-02]]]


 [[[-5.30668944e-02  2.34470684e-02 -1.45960122e-01 ... -1.12778567e-01
     4.84531978e-03  1.69641003e-02]
   [ 1.72994196e-01  1.46438360e-01 -1.30967796e-01 ... -4.85405214e-02
    -9.94224772e-02  1.91060245e-01]
   [-7.62928510e-03  1.58674672e-01  5.71580119e-02 ... -3.45776044e-03
    -6.71429634e-02  6.36193082e-02]]

  [[-6.15295507e-02  1.45128462e-02 -1.59463063e-01 ... -1.04424544e-01
    -5.15972041e-02  6.52564019e-02]
   [ 2.39809170e-01  5.48579879e-02 -1.56025037e-01 ... -7.97632560e-02
    -1.01109006e-01  1.91878587e-01]
   [-3.74510512e-02  8.80640298e-02 -1.04876487e-02 ...  2.06312761e-02
    -6.36085793e-02  1.20208383e-01]]

  [[-4.71350253e-02 -3.83597948e-02 -1.94073230e-01 ... -1.45565107e-01
    -4.83361520e-02  1.08869579e-02]
   [ 1.97361812e-01  2.11781040e-02 -7.36065656e-02 ... -7.11597055e-02
    -1.67959988e-01  9.77615565e-02]
   [-1.30622769e-02  6.00456893e-02  6.50228700e-03 ...  1.20830555e-02
    -1.39991701e-01  6.63646683e-02]]

  ...

  [[ 2.38409620e-02 -2.33104918e-03 -1.31127149e-01 ... -1.54517800e-01
    -5.33226207e-02 -1.09997362e-01]
   [ 2.18424365e-01 -1.25731140e-01 -7.90245645e-03 ... -8.27459991e-02
    -1.60431772e-01 -1.94927037e-01]
   [-3.80193964e-02 -3.67325954e-02  7.95882940e-02 ...  5.80149330e-02
    -6.00527599e-02 -5.98526597e-02]]

  [[ 2.05032751e-02 -6.81352541e-02 -3.60256992e-02 ... -1.14830688e-01
    -2.81615965e-02 -8.16224813e-02]
   [ 1.87194929e-01 -9.01632160e-02  1.47595275e-02 ... -2.10867096e-02
    -1.27316892e-01 -2.25659281e-01]
   [-1.87465735e-02  2.77958228e-03  1.16012484e-01 ...  3.77125777e-02
    -9.98835787e-02 -2.61806976e-02]]

  [[ 6.09941501e-03 -8.60395003e-03 -4.89175804e-02 ... -1.25471205e-01
    -8.01597629e-03 -4.02539782e-02]
   [ 1.48743123e-01 -2.49752346e-02 -4.53965142e-02 ... -2.74336971e-02
    -4.26874347e-02 -1.68210909e-01]
   [-5.51432185e-02 -8.70390888e-03  8.17984492e-02 ...  5.13392203e-02
    -8.44877362e-02 -7.21024424e-02]]]


 ...


 [[[-8.72217938e-02  6.11960590e-02 -3.69928069e-02 ... -4.32093330e-02
    -2.39005368e-02  1.25299543e-01]
   [ 1.03789195e-01 -8.34688842e-02 -6.23550937e-02 ...  2.58736964e-02
    -4.67848107e-02  1.70556501e-01]
   [-3.62415090e-02  7.91116580e-02  5.03114127e-02 ...  1.18795842e-01
    -5.55882649e-03  1.28062114e-01]]

  [[-9.10762101e-02  4.20662016e-02 -9.91830900e-02 ... -3.97744738e-02
    -5.39888106e-02  9.66453105e-02]
   [ 1.34293199e-01 -1.14907280e-01 -8.81655365e-02 ...  5.08489124e-02
    -1.30087271e-01  1.19810089e-01]
   [-3.50426994e-02 -6.30755723e-03  3.79273407e-02 ...  7.11880401e-02
    -7.41287693e-02  5.30920513e-02]]

  [[-7.35632628e-02 -3.42119206e-03 -5.38876578e-02 ... -5.55239676e-05
    -5.06648868e-02  3.57930847e-02]
   [ 1.41574979e-01 -1.61314353e-01 -1.83084197e-02 ...  1.91192403e-02
    -9.25204605e-02  5.86696379e-02]
   [-9.74323377e-02 -1.08791115e-02  3.01389713e-02 ...  1.35449842e-01
    -6.56293482e-02  1.32862944e-02]]

  ...

  [[-8.25628191e-02  4.95238230e-02  2.09113080e-02 ...  3.22739892e-02
    -1.31927207e-02  1.12088040e-01]
   [ 8.93919840e-02 -6.17210455e-02  3.71966586e-02 ...  4.20644470e-02
    -2.62173191e-02 -1.38843264e-02]
   [-2.42737439e-02 -9.21937004e-02  9.80573893e-02 ...  1.96767494e-01
    -7.17448965e-02  7.81173818e-03]]

  [[-2.74115894e-02  7.23937377e-02  4.43745740e-02 ... -2.21437756e-02
     9.64477379e-03  1.33979172e-01]
   [ 8.29889998e-02 -5.68771698e-02  7.43352175e-02 ...  3.05073634e-02
     9.81918909e-03 -7.07800239e-02]
   [-5.42447008e-02 -3.30253206e-02  1.57295913e-01 ...  1.55732676e-01
    -6.50865957e-02  1.58512071e-02]]

  [[-1.97412502e-02  1.13287322e-01  6.28943294e-02 ...  3.05058546e-02
     4.26024757e-02  1.10732011e-01]
   [ 7.16552958e-02 -6.47140592e-02  4.73512560e-02 ...  2.98494250e-02
     6.14080876e-02 -5.60146049e-02]
   [-6.90098777e-02 -1.01394042e-01  8.44696388e-02 ...  7.27055967e-02
    -8.37058872e-02  2.12208442e-02]]]


 [[[-8.48987326e-02  7.44429827e-02  1.92950703e-02 ...  2.03943979e-02
    -1.87573489e-02  9.94139463e-02]
   [ 5.98978810e-02 -1.85509995e-02 -6.32483214e-02 ...  2.70606740e-03
     1.57175381e-02  1.25221983e-01]
   [-1.07384413e-01  8.14332254e-03  4.44638245e-02 ...  4.17593308e-02
    -6.79351203e-03  8.78339335e-02]]

  [[-9.70706791e-02  8.04973580e-03 -3.42797898e-02 ...  3.83205228e-02
    -5.00179157e-02  1.23310916e-01]
   [ 4.56584953e-02 -1.14577681e-01 -4.20485400e-02 ...  2.25903988e-02
    -8.42030495e-02  4.53679673e-02]
   [-7.13285357e-02  1.75736398e-02  5.26254587e-02 ...  5.64257167e-02
    -9.01164785e-02  5.06299771e-02]]

  [[-6.18211180e-02  2.24363990e-02 -1.58497319e-02 ...  1.34784007e-03
    -6.02973513e-02  6.18407205e-02]
   [ 9.85484049e-02 -9.52127352e-02 -3.36992592e-02 ...  1.77918188e-02
    -7.01360628e-02  9.76908505e-02]
   [-6.15165196e-02 -2.30467413e-02  9.36481878e-02 ...  1.41161099e-01
    -2.27731597e-02  2.59365533e-02]]

  ...

  [[-9.75088254e-02  9.26855877e-02  2.83960160e-02 ...  1.69509239e-02
     5.06292991e-02  1.68705657e-01]
   [ 5.69403879e-02 -7.38442363e-03  3.85943390e-02 ...  4.24450636e-02
     1.55442990e-02  2.43295617e-02]
   [-7.35896528e-02 -1.15209177e-01  6.28335774e-02 ...  1.36910290e-01
    -6.71776980e-02  7.00883428e-03]]

  [[-9.61554423e-02  6.92552477e-02  8.93356577e-02 ... -1.23090250e-02
     2.21346393e-02  1.68093175e-01]
   [ 6.42015710e-02 -5.36270998e-02  1.40789803e-02 ... -7.23037054e-04
     6.20885640e-02  1.59716327e-02]
   [-3.53521034e-02 -3.87459025e-02  8.19434151e-02 ...  8.95317718e-02
    -7.94376433e-02  6.40125349e-02]]

  [[-2.76585892e-02  1.13044210e-01  4.91722375e-02 ... -1.70637798e-02
     1.65799744e-02  1.05851926e-01]
   [ 5.32840155e-02 -3.55690978e-02  3.08543164e-02 ... -3.57646076e-03
     7.84891322e-02 -3.89290899e-02]
   [-6.63571283e-02 -9.72890034e-02  1.27036899e-01 ...  9.33992341e-02
    -2.10089758e-02 -1.07449936e-02]]]


 [[[-1.06292225e-01  1.65311433e-02  4.52348515e-02 ... -2.02476364e-02
    -4.12554257e-02  1.59846783e-01]
   [-3.36932354e-02 -8.71543121e-03 -2.45293137e-02 ... -3.54336873e-02
     1.76922362e-02  9.59244072e-02]
   [-1.02848671e-01 -9.37894545e-03  6.56549633e-02 ...  2.08434667e-02
     2.16418691e-02  1.09912656e-01]]

  [[-5.38278595e-02  7.72314146e-02 -6.80728350e-03 ...  3.45332026e-02
    -4.11479082e-03  1.11208849e-01]
   [-6.65952824e-03 -6.05679527e-02 -6.70422614e-03 ...  4.58099060e-02
     7.67449709e-03  1.00219421e-01]
   [-8.51013809e-02 -5.78441583e-02  5.83566688e-02 ...  1.28370285e-01
    -8.41030255e-02  3.28249261e-02]]

  [[-4.33601588e-02  9.03538056e-03  5.69672063e-02 ...  5.19337365e-03
    -4.89901491e-02  1.15699522e-01]
   [ 6.00390136e-02 -6.51643574e-02  2.97008585e-02 ...  5.61569184e-02
     1.31991319e-03  9.77421850e-02]
   [-9.74942148e-02 -7.35486746e-02  1.12304091e-01 ...  9.34431478e-02
    -1.44795636e-02  6.70679659e-02]]

  ...

  [[-9.87564027e-02  9.42008495e-02  5.59527948e-02 ...  6.13969378e-02
    -1.00591127e-03  1.06819376e-01]
   [ 3.14512774e-02  2.20071618e-03  7.36034438e-02 ...  3.64463069e-02
     6.95139170e-02 -2.19890606e-02]
   [-7.84231573e-02 -1.28081784e-01  1.27423167e-01 ...  1.47214741e-01
    -8.16522166e-02  3.49915177e-02]]

  [[-3.58070731e-02  9.74125415e-02  7.71983340e-02 ...  6.57478645e-02
    -1.10223554e-02  1.54074088e-01]
   [ 2.76840441e-02  3.15790437e-02  4.75928634e-02 ...  1.29124783e-02
     7.86480606e-02 -3.63631137e-02]
   [-7.46927261e-02 -9.46476981e-02  8.99605080e-02 ...  7.93412104e-02
    -7.37888291e-02  4.87138554e-02]]

  [[-4.62034382e-02  6.52065277e-02  1.46864861e-01 ... -1.79298762e-02
     6.10030070e-02  1.44528583e-01]
   [ 7.34521672e-02  3.34165394e-02  6.40494898e-02 ...  2.15119962e-02
     1.15993351e-01  1.02429185e-02]
   [-7.43068680e-02 -1.28749594e-01  8.70463625e-02 ...  4.93836962e-02
    -2.76446417e-02 -3.06712948e-02]]]]
network/conv2d/bias:0
(32,)
[-0.0087738   0.00171238  0.00600851 -0.00122943  0.0087814   0.00689308
 -0.01013532 -0.00202581 -0.00260253  0.01086791 -0.01603458 -0.00387669
 -0.02188286  0.02646348  0.00035753 -0.00445008  0.00691233  0.0097484
 -0.00096329 -0.00421537  0.00490583 -0.01836916  0.00350402 -0.00095646
 -0.00603906 -0.00181576 -0.02840786 -0.00837566  0.03450161  0.00703065
 -0.00854904 -0.01711288]
network/batch_normalization/gamma:0
(32,)
[0.9278279  0.7667119  0.7821295  0.7609374  0.956778   1.3013515
 1.4398686  0.7814057  0.8804945  0.8059016  0.89119    0.594702
 0.99651074 1.0305383  0.67988676 0.7843261  1.2127662  0.8436544
 0.65584046 0.93267816 0.8254446  1.0758115  0.8751516  0.72527015
 0.8173524  0.7919013  1.1199387  0.8965316  1.5429205  0.5535912
 0.70337415 1.1187426 ]
network/batch_normalization/beta:0
(32,)
[-0.02850121 -0.23628601 -0.28770897 -0.20543711 -0.19499038  0.29435626
  0.8344555  -0.10950164 -0.06877446 -0.33290496 -0.08157372 -0.03202742
  0.09876639  0.51500905 -0.21416573 -0.24491666  0.49471635  0.11817799
 -0.30579555 -0.10739495 -0.03016486  0.46973255 -0.1704419  -0.27097312
 -0.11980685 -0.23614693  0.51756793  0.32177928  0.75918806 -0.37944373
 -0.31088272  0.07921319]
network/block/conv2d_1/kernel:0
(9, 9, 32, 32)
[[[[-5.04178889e-02  6.80617569e-03 -6.33725375e-02 ...  4.95139696e-02
    -1.91747230e-02 -1.56818420e-01]
   [ 6.53766282e-03  3.71561423e-02  1.67679004e-02 ... -4.13502082e-02
    -5.58287017e-02 -6.42768433e-03]
   [ 7.56002888e-02 -3.93231288e-02 -5.66168316e-02 ...  5.48701994e-02
     4.47883643e-02 -8.63806307e-02]
   ...
   [ 8.09323937e-02 -4.03694659e-02 -1.17147684e-01 ...  1.25876572e-02
     1.89553052e-02 -5.05800284e-02]
   [ 6.11970127e-02  1.11717293e-02 -2.24838424e-02 ...  8.87605827e-03
    -2.38277707e-02  3.97371016e-02]
   [-5.83602339e-02 -7.17335045e-02 -5.37582207e-03 ... -6.54138401e-02
    -1.15455963e-01 -7.13490546e-02]]

  [[-6.35589659e-02 -2.98872720e-02 -3.29051688e-02 ...  5.86585663e-02
    -2.62006205e-02 -1.48991540e-01]
   [-2.06402559e-02  4.49467124e-03  2.86546722e-02 ... -4.77451570e-02
    -3.81103605e-02 -3.92366759e-02]
   [ 4.95680980e-02  2.34456340e-04 -1.17248230e-01 ...  8.10832605e-02
     1.18649695e-02 -4.35304604e-02]
   ...
   [ 4.83161137e-02 -5.42934425e-02 -1.28290012e-01 ... -2.90476554e-03
     2.37099789e-02  1.25390235e-02]
   [ 4.93123680e-02  3.12999934e-02 -2.06003133e-02 ...  2.12000888e-02
    -1.92385539e-02  5.87689988e-02]
   [-1.97748598e-02 -8.08707252e-02  4.43791458e-03 ... -4.72563468e-02
    -1.51901186e-01  6.50553382e-04]]

  [[-8.94490033e-02 -1.22638857e-02 -5.50436638e-02 ...  3.48614641e-02
    -3.77789512e-03 -1.79090828e-01]
   [-4.51082326e-02  2.47492213e-02  1.26298633e-03 ... -1.87765677e-02
    -7.94677287e-02 -2.18768176e-02]
   [ 5.11248335e-02  1.66565068e-02 -1.07526645e-01 ...  8.28011483e-02
    -6.32582791e-03 -1.84225421e-02]
   ...
   [ 7.53361359e-02 -2.90891398e-02 -1.05727226e-01 ...  3.21418270e-02
    -1.80995129e-02 -1.09799337e-02]
   [ 2.67246105e-02  7.02366531e-02  1.37742152e-02 ...  1.52891437e-02
     5.08404430e-03  8.25712308e-02]
   [-4.59076762e-02 -3.65348794e-02  2.61174589e-02 ... -8.42587873e-02
    -1.24091998e-01  4.55139056e-02]]

  ...

  [[-7.39893615e-02 -2.25051735e-02 -2.21032444e-02 ...  3.33665609e-02
     7.78288464e-04 -1.56181827e-01]
   [-1.26020126e-02  6.65235519e-02 -1.30449794e-02 ... -4.23232466e-03
    -4.72787581e-02 -8.08980763e-02]
   [-2.29847245e-02  2.71382704e-02 -7.66629353e-02 ...  6.55507967e-02
     1.69763956e-02  7.64277354e-02]
   ...
   [ 5.86626045e-02 -1.58443267e-03 -9.36444625e-02 ...  1.73520818e-02
     2.83077825e-02 -2.93344539e-03]
   [ 5.91774322e-02  9.30104181e-02  4.64094663e-03 ...  8.84857103e-02
    -1.14339888e-02  1.98623873e-02]
   [-8.39761179e-03  9.09812152e-02  8.47050250e-02 ... -5.04573546e-02
    -8.23523849e-02  2.93254796e-02]]

  [[-1.28184333e-01  1.43362405e-02  1.88012123e-02 ...  3.58095579e-02
    -2.13714112e-02 -1.40229225e-01]
   [-1.47501454e-02  1.03052884e-01  4.79137292e-03 ... -1.66225955e-02
    -4.82936390e-03 -8.05412382e-02]
   [-2.52312273e-02 -6.15168503e-03 -1.15160331e-01 ...  7.83849657e-02
     6.54558614e-02  3.20837647e-02]
   ...
   [ 4.15840894e-02 -5.72229885e-02 -6.38225898e-02 ... -3.13481167e-02
     3.29517201e-02  5.15580140e-02]
   [ 2.75106654e-02  5.41656874e-02  1.99288665e-03 ...  4.41449992e-02
     3.05882804e-02  5.16428705e-03]
   [-4.47089486e-02  7.39345923e-02  5.72516732e-02 ... -9.40336511e-02
    -9.89586711e-02  1.10834874e-02]]

  [[-8.84882212e-02  1.77053288e-02  4.43445928e-02 ...  3.45950685e-02
     9.15744528e-03 -1.84043780e-01]
   [-6.87338412e-02  7.63892829e-02 -2.14534421e-02 ...  2.00277427e-03
     6.67263195e-03 -5.62177077e-02]
   [-2.02643294e-02 -1.32727949e-02 -9.51422155e-02 ...  6.19419143e-02
     1.98756848e-02  4.16292921e-02]
   ...
   [-2.83015780e-02 -6.31331205e-02 -4.86441515e-02 ... -3.03143635e-02
     6.58418611e-02  1.48217781e-02]
   [ 6.24594800e-02  3.65317091e-02  7.63362460e-03 ...  3.76291163e-02
     2.72626057e-02  1.90570951e-02]
   [-5.79911508e-02  1.96731333e-02  6.72390461e-02 ... -9.03767273e-02
    -9.75855738e-02  9.81248021e-02]]]


 [[[-5.73670454e-02 -3.64527316e-03 -5.28038293e-02 ...  2.41305772e-02
    -4.75115702e-02 -1.30661771e-01]
   [-5.48066311e-02  4.75483835e-02  6.73423260e-02 ...  6.65153563e-03
    -7.29126856e-02 -5.61048985e-02]
   [ 2.14306973e-02 -8.99669528e-03 -9.26674828e-02 ...  5.72995469e-02
     8.17340333e-03 -2.20326167e-02]
   ...
   [ 5.97984456e-02 -5.04381675e-03 -7.22441897e-02 ... -3.67055344e-03
     2.64510456e-02 -4.10406888e-02]
   [ 5.16317748e-02  3.73273939e-02 -1.16311312e-02 ... -8.15094681e-04
    -6.29603192e-02  3.72587927e-02]
   [-7.21265599e-02 -3.13751190e-03  2.44665649e-02 ... -3.57456841e-02
    -1.22724548e-01 -2.23569274e-02]]

  [[-8.14418048e-02  2.22674683e-02 -3.31774279e-02 ...  3.71550284e-02
     3.68529698e-03 -1.65193066e-01]
   [-1.68596115e-02  4.57972288e-02  5.15184551e-02 ...  1.86503644e-03
    -5.83685301e-02  9.31978168e-04]
   [ 7.58182183e-02 -8.20249412e-03 -8.45196620e-02 ...  6.18064590e-02
    -1.03117796e-02 -5.93621954e-02]
   ...
   [ 6.42610714e-02 -2.81285476e-02 -1.02616526e-01 ... -2.16359366e-03
     1.25217559e-02  2.57919282e-02]
   [ 6.59355819e-02  7.12539256e-02  3.96132562e-03 ...  1.53019540e-02
    -5.03383465e-02  5.97463101e-02]
   [-6.57189786e-02  4.84533012e-02 -2.42993832e-02 ... -3.47525626e-02
    -1.97682813e-01 -1.19824214e-02]]

  [[-6.94465637e-02  1.29164187e-02 -5.11582308e-02 ...  6.34462163e-02
    -3.00843222e-03 -1.86787844e-01]
   [-3.30183245e-02  8.00586119e-02 -6.11762982e-03 ...  3.41295041e-02
    -1.12818353e-01  4.58160322e-03]
   [ 7.84374401e-02 -4.76578698e-02 -1.14314288e-01 ...  8.09330195e-02
    -6.41647866e-03 -2.29071565e-02]
   ...
   [ 2.23375130e-02 -3.96573357e-02 -1.28953665e-01 ...  6.54129963e-03
     2.14694701e-02  1.14897555e-02]
   [ 6.33980557e-02  4.92320135e-02 -1.12881856e-02 ...  5.13095036e-02
    -3.37022357e-02  2.50119939e-02]
   [-5.07175326e-02  6.10002093e-02 -1.44616170e-02 ... -6.45660236e-02
    -1.70299813e-01  4.56087813e-02]]

  ...

  [[-8.48278180e-02  1.59893073e-02  1.97304506e-02 ...  2.73447894e-02
     3.02245729e-02 -1.45092770e-01]
   [-3.80107090e-02  9.10942331e-02 -5.56482282e-03 ...  5.65615892e-02
    -6.38027722e-03 -1.04232043e-01]
   [ 1.27043100e-02 -4.01894562e-04 -1.29394457e-01 ...  4.74922955e-02
     6.10533766e-02  2.81113479e-02]
   ...
   [ 1.73993930e-02 -6.96276128e-02 -9.09028873e-02 ... -2.41429638e-02
     2.04853117e-02  5.28232986e-03]
   [ 5.21929003e-02  2.28739250e-02  1.82490870e-02 ...  7.26304352e-02
     1.01828612e-02  4.57347557e-02]
   [-3.23472209e-02  1.22324355e-01  4.18324433e-02 ...  2.00589392e-02
    -6.16255477e-02 -4.99829426e-02]]

  [[-1.09525278e-01  3.66635844e-02  1.82780847e-02 ...  2.00683493e-02
    -2.21849084e-02 -2.02276424e-01]
   [-3.78455073e-02  4.10976261e-02  1.52710555e-02 ...  9.56779160e-03
     2.81050988e-02 -1.21068470e-01]
   [-7.78699480e-03 -6.31337799e-03 -1.11924671e-01 ...  2.76708025e-02
     5.62684573e-02  4.35235351e-02]
   ...
   [-3.32687013e-02 -6.85369447e-02 -1.85228270e-02 ...  1.59818865e-02
     7.18825459e-02  2.78394092e-02]
   [ 2.69228481e-02  7.58499429e-02 -4.50035557e-02 ...  4.29431871e-02
     1.57297477e-02  2.51173098e-02]
   [-5.94578981e-02  9.27807838e-02  1.72763206e-02 ... -2.99597718e-02
    -5.43365180e-02  1.37644270e-02]]

  [[-4.64112721e-02  3.76163074e-03  1.26939164e-02 ... -1.75114069e-03
     2.50291917e-02 -1.96328625e-01]
   [-2.89516989e-02  1.96200646e-02  1.43629853e-02 ... -2.49378593e-03
    -8.16167798e-03 -7.99253881e-02]
   [-4.01185937e-02 -5.75876720e-02 -7.69697800e-02 ...  3.70659083e-02
     2.29011271e-02  3.27094831e-02]
   ...
   [-3.70921521e-03 -6.10954985e-02 -1.53299067e-02 ... -1.94034036e-02
     2.26927809e-02 -1.84295606e-02]
   [ 9.44080390e-03  3.96461450e-02  1.32564558e-02 ...  4.31481414e-02
     3.68396603e-02 -2.33019069e-02]
   [-4.13184278e-02  3.96673232e-02  6.70076683e-02 ... -1.11632548e-01
    -5.59173673e-02  5.20195179e-02]]]


 [[[-3.70682441e-02  1.30185457e-02 -9.58646759e-02 ...  7.60400519e-02
    -3.42660025e-02 -1.31888464e-01]
   [-3.46164592e-02  6.77806064e-02  4.72306609e-02 ...  1.00105535e-02
    -6.25136346e-02  1.03637576e-02]
   [ 2.68817730e-02 -4.69819866e-02 -9.67174470e-02 ...  1.38696078e-02
     3.92348655e-02 -3.80774029e-02]
   ...
   [ 6.40102923e-02 -3.14013511e-02 -6.60296008e-02 ...  2.73181982e-02
     9.62844398e-03 -1.78171434e-02]
   [ 7.13354647e-02  7.85524845e-02  2.28257589e-02 ...  3.93460877e-02
    -5.03475331e-02  8.74947682e-02]
   [-8.79394934e-02  4.79804836e-02  2.77271252e-02 ...  2.72934567e-02
    -2.18828022e-01 -6.67109340e-02]]

  [[-2.69129872e-02 -1.29974354e-02 -7.04257935e-02 ...  6.24992512e-02
    -1.31022641e-02 -1.39788553e-01]
   [-2.66972799e-02  8.65275562e-02  3.78587507e-02 ...  4.33847979e-02
    -1.19695552e-01  1.85286924e-02]
   [ 2.69162543e-02 -1.72084197e-02 -7.14194551e-02 ... -9.88961942e-03
     2.24376768e-02 -1.56884659e-02]
   ...
   [ 5.25984354e-02  1.37212100e-02 -1.05665050e-01 ... -2.72365995e-02
     4.12716120e-02 -5.07097021e-02]
   [ 5.79823889e-02  5.94578683e-02  2.79793385e-02 ...  4.58679646e-02
    -6.20074645e-02  2.61467863e-02]
   [-8.90019163e-02  1.28883153e-01 -5.75851612e-02 ...  2.15771887e-02
    -2.02303693e-01 -3.67483906e-02]]

  [[-8.90711322e-02 -5.06154336e-02 -4.64457907e-02 ...  1.97499152e-02
     3.47099490e-02 -1.97185159e-01]
   [-3.47000323e-02  5.87378256e-02  2.88557746e-02 ...  4.80670668e-02
    -9.19435695e-02 -2.08820011e-02]
   [ 1.47552211e-02  6.74089929e-03 -5.48967496e-02 ...  3.34249102e-02
     4.65521328e-02 -3.21575403e-02]
   ...
   [ 2.61942316e-02 -3.69903725e-03 -1.16202205e-01 ... -3.82782109e-02
     2.51822602e-02 -3.02001256e-02]
   [ 8.49473104e-02  7.71849602e-02  4.06182837e-03 ...  4.94108275e-02
    -3.77626196e-02  3.76904830e-02]
   [-5.59876561e-02  1.44967094e-01 -3.26302834e-02 ...  3.36643010e-02
    -1.66975722e-01 -2.62824632e-02]]

  ...

  [[-5.96811585e-02  8.47261958e-03  7.19242671e-05 ...  2.47305166e-02
    -2.09293664e-02 -1.81373030e-01]
   [-4.51774038e-02  2.77421940e-02 -1.81035977e-02 ...  3.53805907e-02
    -8.44104122e-03 -9.78140905e-02]
   [-1.18588116e-02 -3.75231467e-02 -1.38761818e-01 ...  3.57443132e-02
     3.18778716e-02  4.99251522e-02]
   ...
   [ 8.46006535e-03 -2.58060228e-02 -8.05327147e-02 ...  1.04471184e-02
     6.23161495e-02 -1.69657841e-02]
   [ 4.58273739e-02  8.41033459e-02  4.82684784e-02 ...  7.03838170e-02
    -8.62755813e-04 -1.69888362e-02]
   [-7.90072381e-02  1.07671805e-01  2.44245655e-03 ...  8.56626406e-03
    -9.63803148e-04 -1.30596653e-01]]

  [[-5.40461317e-02  5.27568627e-03 -2.66449284e-02 ...  4.34212945e-02
    -1.35888904e-02 -1.57330140e-01]
   [-7.81648979e-02  1.85234267e-02 -3.14290226e-02 ...  5.13952635e-02
     5.17035127e-02 -1.30054682e-01]
   [-3.64536457e-02 -3.54941227e-02 -1.43647581e-01 ... -1.07556500e-03
     2.88205557e-02  2.78228782e-02]
   ...
   [-3.66532709e-03 -6.36098608e-02 -4.39345874e-02 ... -1.51186911e-02
     2.02894732e-02  2.74787303e-02]
   [ 3.03109121e-02  3.54534760e-02  2.84219887e-02 ...  1.15366668e-01
     6.72167689e-02 -1.48666538e-02]
   [-1.15594253e-01  7.93435797e-02 -9.98959038e-03 ...  5.62209822e-03
     2.25759149e-02 -1.04178995e-01]]

  [[-4.80633862e-02 -2.65767016e-02 -1.12106251e-02 ...  5.96077405e-02
    -2.11470351e-02 -1.79803640e-01]
   [-7.56812766e-02 -6.45182189e-03 -4.78714937e-03 ...  3.47331837e-02
     2.39490420e-02 -1.20138124e-01]
   [-4.98961881e-02 -8.87608677e-02 -1.22389272e-01 ...  3.58498730e-02
     6.70512542e-02  1.23048006e-02]
   ...
   [-4.58526127e-02 -1.19701535e-01 -4.50994354e-03 ... -4.04487327e-02
     2.89473981e-02 -9.42168571e-03]
   [-1.20941282e-03  1.35700721e-02  7.90996361e-04 ...  6.21430762e-02
     6.46690801e-02 -5.04501201e-02]
   [-8.64433497e-02  6.56514093e-02  1.27158908e-03 ... -4.56115268e-02
    -5.01663983e-02 -5.28265052e-02]]]


 ...


 [[[-5.35269380e-02  3.75189446e-02 -6.99304342e-02 ...  1.61972195e-02
     1.04118576e-02 -1.10134855e-01]
   [-6.74491450e-02 -4.34780754e-02  3.40658091e-02 ...  4.11718152e-02
    -1.61255226e-02 -1.07854791e-01]
   [ 1.78397167e-02 -2.41099522e-02 -4.19907756e-02 ... -7.16536418e-02
    -2.08247546e-02 -7.39705116e-02]
   ...
   [ 2.10024733e-02 -5.31005152e-02 -4.76295985e-02 ... -2.38671415e-02
     1.70740168e-05 -5.52088730e-02]
   [ 6.31928369e-02  6.49878532e-02  6.93824217e-02 ...  5.97854592e-02
    -3.75878625e-03 -8.85799993e-03]
   [-1.56366557e-01 -3.10595389e-02 -2.82306559e-02 ...  1.18409112e-01
     3.63860056e-02 -1.01458527e-01]]

  [[-6.14644550e-02  1.33512476e-02 -8.42913464e-02 ...  2.97330990e-02
    -4.32396084e-02 -1.08561009e-01]
   [-5.14808148e-02 -1.76017750e-02  3.94194014e-03 ...  6.22553634e-04
     2.04046443e-02 -1.64960548e-01]
   [ 3.41966376e-03 -2.43217982e-02 -7.49958977e-02 ... -6.86760396e-02
    -4.53106053e-02 -1.91254150e-02]
   ...
   [ 1.53449615e-02 -4.42160554e-02 -5.82227111e-02 ... -3.46471965e-02
     2.22988389e-02 -3.99193391e-02]
   [ 5.59770092e-02  2.53358018e-02  2.93763429e-02 ...  2.97839213e-02
    -6.39840541e-03 -6.73291273e-03]
   [-9.77847502e-02 -3.39344665e-02 -8.37172195e-02 ...  1.05913267e-01
     1.43384099e-01 -1.05737142e-01]]

  [[-3.44400220e-02  1.02241132e-02 -9.82939154e-02 ... -1.28454119e-02
    -4.63131703e-02 -1.14132017e-01]
   [-4.28269319e-02 -6.73707277e-02  2.32523251e-02 ... -1.22774914e-02
     3.70521136e-02 -1.82670772e-01]
   [ 3.71600944e-03 -3.77191454e-02 -5.84230348e-02 ... -7.03408867e-02
    -2.83888504e-02 -6.98210821e-02]
   ...
   [ 1.67031642e-02 -1.59070510e-02 -7.38333613e-02 ... -1.15014836e-01
    -1.45859569e-02 -7.38559663e-02]
   [ 1.86208484e-03 -2.10559869e-04  6.26408458e-02 ...  7.76150674e-02
     1.19055323e-02 -7.28549361e-02]
   [-6.07945621e-02 -7.55106732e-02 -9.40063670e-02 ...  4.81864214e-02
     2.37083450e-01 -1.08093187e-01]]

  ...

  [[-9.42233801e-02  1.51615813e-02 -8.17794800e-02 ...  4.75872718e-02
    -7.45082926e-03 -1.50746360e-01]
   [ 1.30263390e-03 -6.74417466e-02 -6.03656983e-03 ... -7.93218762e-02
     9.17191207e-02 -6.58637285e-02]
   [-8.77192914e-02 -6.60328418e-02 -1.41961738e-01 ... -1.08902656e-01
     1.27249006e-02 -2.73176786e-02]
   ...
   [-4.93504927e-02 -6.01983592e-02 -4.68662083e-02 ... -1.96229354e-01
    -3.66335846e-02 -6.04232121e-03]
   [ 2.51442771e-02 -4.29125428e-02  3.27427462e-02 ...  7.90576860e-02
     5.57537824e-02 -8.36089402e-02]
   [-7.45055079e-02 -8.77353624e-02 -3.08204722e-02 ... -1.52347818e-01
     4.90910001e-02  1.12886803e-04]]

  [[-7.81171098e-02  4.55547264e-03 -3.46199311e-02 ...  3.94119173e-02
    -2.91566132e-03 -1.44813538e-01]
   [ 3.17319892e-02 -4.83020432e-02  7.24132285e-02 ... -7.50670880e-02
     3.20251957e-02 -3.45801041e-02]
   [-8.88975933e-02 -2.63572503e-02 -1.67351842e-01 ... -1.13758527e-01
    -4.02792916e-02 -6.77268356e-02]
   ...
   [-9.03933421e-02 -7.35857189e-02 -1.76643897e-02 ... -1.74732640e-01
    -1.12591283e-02 -4.56906781e-02]
   [ 8.39052647e-02 -4.50200140e-02  4.77412902e-02 ...  5.77003323e-02
     5.30655570e-02 -9.88056809e-02]
   [ 2.98125902e-03 -3.16769779e-02 -1.83040146e-02 ... -1.37866288e-01
    -1.14471270e-02  3.05546224e-02]]

  [[-8.50230455e-02  4.65743132e-02 -5.99631295e-03 ...  4.96511497e-02
    -2.07959246e-02 -1.85530841e-01]
   [ 8.23395923e-02 -5.49433492e-02  7.41221607e-02 ... -5.59165627e-02
     2.76230723e-02  1.26075968e-02]
   [-7.83615708e-02 -5.47350645e-02 -8.69196281e-02 ... -1.04855932e-01
    -4.76771817e-02 -4.66010645e-02]
   ...
   [-7.13679567e-02 -4.18689847e-02 -4.23845416e-03 ... -1.77347139e-01
    -3.86644714e-02 -2.50947569e-02]
   [ 8.87273774e-02 -4.47790474e-02  6.83759525e-02 ...  1.95211843e-02
     2.67647151e-02 -6.62017986e-02]
   [ 2.55144164e-02  6.14646077e-03 -2.65029143e-03 ... -1.80736557e-01
    -3.13894562e-02  4.36710976e-02]]]


 [[[-7.37513974e-02  2.65832674e-02 -9.61920097e-02 ...  8.60211998e-03
    -7.31883151e-03 -9.84691307e-02]
   [-3.83298583e-02 -2.41850652e-02  3.69663313e-02 ... -3.94011326e-02
     5.32184690e-02 -1.73801646e-01]
   [-4.20529433e-02 -5.28771989e-02  1.57698784e-02 ... -1.05651014e-01
    -2.57487148e-02 -5.44220321e-02]
   ...
   [-3.72040793e-02 -2.33229846e-02 -5.15707880e-02 ... -2.71374378e-02
     9.29436355e-04 -5.02644219e-02]
   [ 6.39352575e-02  2.44941041e-02  6.01971485e-02 ... -1.27722425e-02
    -2.59270966e-02  3.00583169e-02]
   [-1.83886349e-01 -1.45583645e-01  2.61600292e-03 ...  9.83611271e-02
     8.50693062e-02 -9.66404974e-02]]

  [[-4.50270846e-02  4.50165533e-02 -1.11106202e-01 ...  2.48379223e-02
    -3.96277681e-02 -1.33327261e-01]
   [-9.25927609e-03 -3.29422355e-02 -2.71474309e-02 ... -5.25346771e-02
     4.11288999e-02 -1.91845044e-01]
   [-4.50181961e-02 -3.54484133e-02 -5.95342107e-02 ... -9.27560627e-02
    -3.59237231e-02 -4.35719676e-02]
   ...
   [-9.35234968e-03 -5.28465956e-03 -1.82201602e-02 ... -8.67536217e-02
    -7.79839046e-03 -5.92140108e-02]
   [ 6.52512014e-02  2.34545954e-02  2.90988404e-02 ...  5.41592129e-02
     1.06967622e-02 -4.36760373e-02]
   [-1.28267035e-01 -1.13751449e-01 -5.17799817e-02 ...  4.91422601e-02
     1.57512069e-01 -8.03284645e-02]]

  [[-4.49125916e-02  1.36228390e-02 -1.09520122e-01 ... -1.37226684e-02
    -6.44902699e-03 -9.34539363e-02]
   [ 1.28817316e-02 -1.06571130e-01 -1.18636508e-02 ... -2.67240554e-02
     3.81978452e-02 -1.90249860e-01]
   [-3.82062495e-02 -1.29055977e-02 -4.01542932e-02 ... -6.43774122e-02
    -1.06512876e-02 -4.29962799e-02]
   ...
   [-3.51797938e-02  9.75465402e-03 -2.80483328e-02 ... -8.12492892e-02
    -1.05414614e-02 -1.74668850e-03]
   [ 5.31556047e-02  7.38865975e-03  7.39323199e-02 ...  2.07638722e-02
     1.16862822e-02 -5.17954640e-02]
   [-1.02180004e-01 -1.57156706e-01 -7.16833845e-02 ... -5.30021032e-03
     1.93528652e-01 -4.20915559e-02]]

  ...

  [[-4.04472500e-02  1.01623302e-02 -9.87989753e-02 ...  2.40571927e-02
    -2.28231549e-02 -1.77954897e-01]
   [ 9.01703462e-02 -3.44175994e-02  4.29036766e-02 ... -1.19197324e-01
     2.23212671e-02 -4.16565239e-02]
   [-8.75906721e-02 -4.55038212e-02 -1.49447903e-01 ... -1.28403604e-01
    -2.34037824e-02  1.11072017e-02]
   ...
   [-5.19970953e-02 -6.68170350e-03  6.22405251e-03 ... -1.23155162e-01
    -2.23767217e-02 -2.98694428e-02]
   [ 9.52025652e-02 -7.75054172e-02  7.99314529e-02 ...  3.44757847e-02
     8.48428253e-03 -7.87948221e-02]
   [ 7.35080428e-03 -2.63034422e-02  2.08323300e-02 ... -1.99635729e-01
    -3.80935930e-02  3.56629044e-02]]

  [[-4.77366969e-02 -6.98714517e-03 -3.56277451e-02 ...  3.51076648e-02
     4.59176628e-03 -1.35989562e-01]
   [ 1.05333649e-01 -5.05308509e-02  6.42346367e-02 ... -1.25398368e-01
    -1.15461573e-02 -2.29291897e-02]
   [-9.23469886e-02 -5.09032719e-02 -1.07113995e-01 ... -1.06776379e-01
    -1.44997500e-02 -3.77205350e-02]
   ...
   [-7.02762827e-02 -4.86698784e-02  2.39307135e-02 ... -1.06162108e-01
    -3.36630531e-02  1.93413049e-02]
   [ 9.00208130e-02 -7.70699279e-03  8.57003629e-02 ...  4.12186645e-02
     2.42507458e-02 -8.02644566e-02]
   [-2.09988933e-02 -5.90087892e-03  5.65465093e-02 ... -1.57085344e-01
    -1.05324648e-01  8.46503861e-03]]

  [[-3.35396528e-02 -1.13686835e-02 -1.54869119e-02 ...  6.38486445e-02
     8.34001042e-03 -1.83257401e-01]
   [ 1.15478605e-01  3.01424339e-02  4.81565148e-02 ... -7.07296059e-02
     1.39066270e-02  2.00062208e-02]
   [-1.13589570e-01 -3.64961959e-02 -9.75471362e-02 ... -8.25524703e-02
    -4.02380116e-02 -4.49661203e-02]
   ...
   [-6.84677437e-02 -6.14524856e-02  6.93788007e-02 ... -1.15795843e-01
    -3.87553647e-02  1.28318053e-02]
   [ 6.41318485e-02 -5.96592277e-02  2.22546048e-02 ...  1.58628728e-02
     8.76171887e-03 -7.89828822e-02]
   [ 7.05381855e-02  6.82399943e-02  1.17146550e-02 ... -1.71694234e-01
    -5.25390618e-02  5.24510145e-02]]]


 [[[-4.54330742e-02  3.22739743e-02 -5.76239266e-02 ...  4.11063433e-02
    -1.45515827e-02 -8.20681080e-02]
   [-1.58223268e-02 -9.70761627e-02  3.76484394e-02 ... -8.95579159e-02
     9.50155314e-03 -1.22846447e-01]
   [-4.00416255e-02  2.23185197e-02  9.79766948e-04 ... -7.05439821e-02
    -6.42586127e-02 -5.34036607e-02]
   ...
   [-5.09841815e-02 -4.17768061e-02  5.23966737e-03 ... -4.73622419e-02
     1.36432080e-02 -4.12065238e-02]
   [ 5.57216331e-02  2.46385094e-02  2.86300685e-02 ... -2.06691232e-02
     3.61375660e-02 -2.65592653e-02]
   [-2.69171000e-01 -1.75754339e-01  5.47074601e-02 ...  8.20556134e-02
     1.64285198e-01 -1.20342486e-01]]

  [[-2.30981912e-02  8.07694495e-02 -1.05607018e-01 ...  3.06301825e-02
    -1.58225733e-03 -1.03914447e-01]
   [ 5.26050478e-02 -8.02666917e-02 -1.00904722e-02 ... -8.35983902e-02
     3.36663276e-02 -1.37617648e-01]
   [-5.22359051e-02 -8.71053245e-03 -2.86615286e-02 ... -3.96490134e-02
    -6.76337630e-02 -7.90142454e-03]
   ...
   [-2.52082348e-02  2.86564063e-02  3.99216020e-04 ... -7.97588229e-02
    -5.56210708e-03 -1.03553478e-02]
   [ 1.50326528e-02 -6.93054497e-03  7.33718425e-02 ... -3.43861505e-02
     7.37791788e-03 -1.90024376e-02]
   [-1.30919665e-01 -1.49097905e-01  3.02270483e-02 ...  3.16532999e-02
     1.68404073e-01 -9.81096327e-02]]

  [[-7.92323425e-02  4.09741811e-02 -9.47079211e-02 ...  3.46664935e-02
     2.28149723e-03 -1.50331929e-01]
   [ 7.15389997e-02 -9.99354348e-02  5.31585105e-02 ... -1.03239194e-01
     3.13609391e-02 -1.74505919e-01]
   [-5.13977520e-02 -2.93409154e-02 -5.34348935e-02 ... -7.15609565e-02
    -4.38188948e-02 -3.83481681e-02]
   ...
   [-2.19889693e-02  3.40708680e-02 -1.39585715e-02 ... -7.28684440e-02
     6.06071018e-03  1.20811950e-04]
   [ 1.48321232e-02 -1.17763160e-02  4.92731817e-02 ... -7.02981371e-03
     3.36288661e-02 -1.98147949e-02]
   [-7.62889013e-02 -1.28770262e-01  2.11897679e-02 ... -8.23659748e-02
     1.26252696e-01 -6.48579150e-02]]

  ...

  [[-3.48012336e-02 -2.93214386e-03 -4.36052531e-02 ...  5.73959164e-02
     1.52704921e-02 -1.65422171e-01]
   [ 1.55875817e-01 -2.61725839e-02  6.36347532e-02 ... -1.19655795e-01
    -1.58532546e-03 -4.17936780e-02]
   [-1.43409729e-01 -2.54236087e-02 -7.03258887e-02 ... -4.09843363e-02
    -2.47326158e-02 -1.04811834e-02]
   ...
   [-2.88751647e-02 -1.36094699e-02 -6.29833550e-04 ... -1.38742670e-01
     3.25414399e-03 -1.08594643e-02]
   [ 7.86892995e-02 -5.60089573e-02  8.17161724e-02 ... -2.55293772e-02
    -4.87113465e-03 -4.08531055e-02]
   [ 5.65460920e-02  5.79310283e-02  3.65584791e-02 ... -1.60904333e-01
    -9.95405018e-02  6.33892938e-02]]

  [[-9.53627378e-02  3.89295700e-03 -6.45236671e-02 ...  2.84752063e-02
     4.24670521e-03 -1.14347905e-01]
   [ 1.45319477e-01 -1.82395000e-02  9.92214680e-02 ... -1.58604577e-01
     2.48721149e-03 -4.76237424e-02]
   [-1.61232531e-01 -1.30117498e-02 -7.34503120e-02 ... -9.67834294e-02
    -4.31044325e-02 -2.42560841e-02]
   ...
   [-1.05700225e-01 -2.72835568e-02  2.49126200e-02 ... -1.30223349e-01
     1.34896655e-02  7.34979706e-03]
   [ 1.00237802e-01 -1.28930584e-02  5.78731820e-02 ... -4.50663716e-02
     8.13219603e-03 -5.24100885e-02]
   [ 2.81839054e-02  1.00393467e-01  9.40651000e-02 ... -1.60343468e-01
    -6.14564009e-02  1.60085913e-02]]

  [[-6.31862059e-02 -2.75340769e-03 -3.42142023e-02 ...  5.75090311e-02
    -1.96907166e-02 -1.65472612e-01]
   [ 1.19938180e-01  1.16284536e-02  1.11882299e-01 ... -1.13130108e-01
    -5.89705631e-03 -5.97656853e-02]
   [-1.22730687e-01  1.03870081e-02 -6.33681118e-02 ... -6.52923808e-02
    -4.84410003e-02  2.16048826e-02]
   ...
   [-5.89083433e-02 -5.93634285e-02  8.71381760e-02 ... -1.02024175e-01
    -1.37437358e-02  1.67168509e-02]
   [ 1.38549805e-01 -9.60737001e-03  5.12753725e-02 ... -3.28454711e-02
     1.38709433e-02 -5.22405952e-02]
   [ 7.92704970e-02  1.14094824e-01  8.50780681e-02 ... -1.74399972e-01
    -9.21005756e-02  1.85784530e-02]]]]
network/block/conv2d_1/bias:0
(32,)
[ 1.69662118e-04  1.04607956e-03 -8.93065735e-05 -7.61573028e-05
 -1.97495494e-04  3.74508963e-04 -1.46816819e-04  4.43980010e-04
 -3.59402649e-04 -1.60046358e-04  1.44805206e-04  3.37798148e-04
 -6.51373120e-04  5.33300510e-04 -6.38155791e-04 -4.16753210e-08
 -3.86239932e-04  1.87414451e-04 -8.40805704e-04 -4.36145492e-04
  1.09582215e-04 -1.23619262e-04 -1.67357794e-04 -8.36223480e-04
 -8.16483953e-05 -6.92578964e-04  5.53147693e-04 -1.26546877e-03
 -9.83936989e-05 -1.15120129e-04  1.47139002e-03  8.14658270e-05]
network/block/batch_normalization_1/gamma:0
(32,)
[0.7443419  1.267089   0.9269499  0.80449396 1.037586   0.74864787
 0.733642   0.9222177  0.75364065 1.0032792  0.69880134 0.8743722
 1.002404   0.93033063 0.90592164 0.98872167 1.0363071  0.99455917
 1.1209636  1.2959999  0.8533167  0.88169503 1.2234547  1.0555993
 0.83325297 0.8535787  0.8833586  1.2085577  0.95935184 1.0850751
 1.4456067  1.0271869 ]
network/block/batch_normalization_1/beta:0
(32,)
[-0.24696364 -0.21397807 -0.14887674 -0.11993553 -0.20895003 -0.25998557
 -0.49599242 -0.14169452 -0.36143848 -0.08878696 -0.28706104 -0.18401955
 -0.31797576 -0.13811985 -0.09072053 -0.16027844 -0.15308651 -0.08889496
 -0.10582365  0.13593316 -0.29757264 -0.39203283  0.20896286 -0.10998153
 -0.2588888  -0.20001474 -0.1579405   0.05061231 -0.21686722 -0.01994504
 -0.011144   -0.15122698]
network/block_1/conv2d_2/kernel:0
(9, 9, 32, 64)
[[[[ 6.46225512e-02 -3.08974739e-02  1.30949523e-02 ...  1.36924788e-01
     2.14836553e-01 -1.29094496e-01]
   [ 2.45890860e-02 -1.86253060e-02  2.02714335e-02 ...  3.51235606e-02
     6.45249858e-02  1.29123603e-03]
   [ 1.91397164e-02 -5.76874129e-02 -1.67361870e-02 ...  4.39074300e-02
    -6.08377382e-02 -1.01886829e-02]
   ...
   [ 6.11020103e-02 -5.64957708e-02 -1.97469033e-02 ...  5.17116338e-02
    -7.19491858e-03 -1.11375608e-01]
   [ 2.58084629e-02 -3.33129317e-02  1.29595712e-01 ... -1.17480429e-03
     4.09332477e-02  2.14127940e-03]
   [-6.52350262e-02  8.34933296e-02 -5.50110117e-02 ...  4.61763106e-02
    -6.32967474e-03  1.72274839e-02]]

  [[ 5.51307052e-02 -4.26792912e-02 -2.12413315e-02 ...  1.53336525e-01
     1.92800656e-01 -4.70917411e-02]
   [-2.95637120e-02 -1.17322557e-01  1.63832009e-02 ... -3.00928368e-04
     5.26850559e-02 -1.35725585e-03]
   [ 4.51139696e-02 -1.82856768e-02 -4.12079878e-02 ...  6.80778250e-02
    -2.84919776e-02 -1.42456181e-02]
   ...
   [ 2.18760259e-02 -8.08283091e-02 -7.24525005e-02 ... -2.51022540e-02
     3.99927571e-02 -5.97109720e-02]
   [ 1.40362373e-02 -4.58786935e-02  1.83550045e-01 ... -2.90355575e-03
     9.03646499e-02 -3.46124209e-02]
   [-7.81336278e-02  7.93352723e-02  1.23937959e-02 ...  5.08964472e-02
    -4.44222391e-02  4.04793248e-02]]

  [[ 8.79653022e-02 -2.64365003e-02  8.25044699e-03 ...  1.67267963e-01
     1.47968575e-01 -4.89686690e-02]
   [-5.92238419e-02 -9.18742642e-02  3.42543349e-02 ... -6.73833564e-02
    -3.02664358e-02 -5.09419525e-03]
   [ 2.75807008e-02 -7.68882930e-02 -9.30335000e-02 ...  8.05839151e-02
    -1.54156005e-02 -5.25849946e-02]
   ...
   [ 8.46684799e-02 -7.25229010e-02 -1.46965683e-02 ... -6.12412915e-02
     2.41812374e-02 -6.06768206e-02]
   [ 7.59726064e-03 -2.80306097e-02  1.88211158e-01 ... -4.01309207e-02
     1.06831051e-01 -6.77642748e-02]
   [-1.21518962e-01  4.55195792e-02 -2.08933838e-02 ...  2.89297700e-02
    -2.72489227e-02  9.42291468e-02]]

  ...

  [[ 1.47052392e-01 -6.56433254e-02 -3.24851158e-03 ...  7.40818530e-02
     1.44125164e-01  1.20498255e-01]
   [-1.45208403e-01 -3.82555649e-02  1.23163210e-02 ... -1.38000414e-01
    -1.48863092e-01  3.74948233e-02]
   [ 7.79298469e-02 -6.40585870e-02 -7.81720057e-02 ...  2.79179066e-02
    -1.53104980e-02 -1.04249321e-01]
   ...
   [ 1.16002634e-02  4.93753739e-02 -5.04507571e-02 ... -1.94792282e-02
     1.97472004e-03 -8.37124810e-02]
   [-1.24389522e-01 -1.69565268e-02  1.37199789e-01 ...  1.83999706e-02
     1.32395308e-02 -6.58876747e-02]
   [-8.15632846e-03  5.57005368e-02 -8.61876551e-03 ... -9.05061290e-02
    -6.84889928e-02 -5.39269159e-03]]

  [[ 1.10616162e-01 -6.95648417e-03  2.27972344e-02 ...  1.82186197e-02
     9.53295007e-02  1.44374862e-01]
   [-1.56354040e-01 -5.21445610e-02  1.74461696e-02 ... -8.40708315e-02
    -1.24747671e-01  7.17322296e-03]
   [ 8.97128135e-03 -8.61079469e-02 -1.23553351e-01 ... -5.22768609e-02
    -3.20697203e-02 -8.33086073e-02]
   ...
   [-5.97095750e-02  2.08901837e-02 -1.25932936e-02 ... -3.64179537e-02
    -7.97041506e-03 -7.94131458e-02]
   [-8.16490576e-02  2.46048323e-03  9.70594585e-02 ...  1.18990932e-02
     6.55007511e-02 -1.21425940e-02]
   [-5.28500695e-03  5.51330559e-02 -3.03410105e-02 ... -7.24160299e-02
    -4.17057797e-02 -3.68595086e-02]]

  [[ 8.85424688e-02 -6.76332414e-03  3.34900320e-02 ...  6.33180812e-02
     1.14532538e-01  6.00912422e-02]
   [-8.04321915e-02 -1.79528706e-02  3.16032693e-02 ... -1.25511259e-01
    -2.56075263e-02 -1.27029121e-02]
   [ 4.11036462e-02 -3.62874381e-02 -8.05038288e-02 ... -8.96376967e-02
    -2.35386230e-02 -4.87395190e-02]
   ...
   [ 4.74285055e-03  3.49944755e-02 -7.51334801e-02 ... -5.37351258e-02
     3.55648547e-02 -3.59099694e-02]
   [-7.54026324e-02  1.49317041e-01  1.06542379e-01 ...  1.93512551e-02
     5.25688492e-02  7.82244354e-02]
   [ 6.36071041e-02  7.61559010e-02 -2.62914766e-02 ... -5.82060292e-02
    -5.77762276e-02 -8.47239345e-02]]]


 [[[ 1.13006964e-01 -3.38622592e-02 -2.09402051e-02 ...  1.11494415e-01
     1.46616533e-01 -3.65167968e-02]
   [-1.06683664e-01 -1.09127194e-01  2.39350069e-02 ...  1.02752969e-02
     3.61091606e-02  1.07831685e-02]
   [-1.11771198e-02 -2.99901236e-02 -8.21288899e-02 ...  9.94575843e-02
    -2.96693649e-02  1.87533232e-03]
   ...
   [ 2.96127852e-02 -5.16970605e-02 -9.85672846e-02 ...  2.03817114e-02
     1.36421761e-02 -1.34670213e-01]
   [ 7.65265943e-03 -3.20510641e-02  6.00358285e-02 ... -2.83368863e-02
     1.94576904e-02 -3.35306264e-02]
   [-6.55262843e-02  1.47995174e-01 -1.77209415e-02 ...  6.86205998e-02
     3.55354534e-03  1.37569467e-02]]

  [[ 3.12010236e-02 -4.07543220e-02  3.87627911e-03 ...  1.19973198e-01
     1.08794823e-01  3.01329568e-02]
   [-1.21707164e-01 -1.11722007e-01 -1.03906812e-02 ... -2.69302949e-02
    -5.56021407e-02  3.86895463e-02]
   [ 3.75634097e-02  4.59832576e-04 -3.89254801e-02 ...  1.46649227e-01
     4.67627458e-02 -4.08155173e-02]
   ...
   [ 2.11780891e-02 -1.91798173e-02 -2.38600802e-02 ... -8.58771335e-03
    -3.89306322e-02 -1.56559482e-01]
   [ 4.54331655e-03 -6.70438111e-02  1.47394657e-01 ... -7.80527741e-02
     4.45064679e-02 -1.12627573e-01]
   [-8.88320580e-02  7.59371594e-02  2.21857559e-02 ...  4.44588624e-02
    -8.75099190e-03  7.94398859e-02]]

  [[ 7.28597119e-02 -3.26426886e-02 -1.03659583e-02 ...  4.92799953e-02
     1.08494289e-01  1.09418072e-02]
   [-1.53827816e-01 -6.40485734e-02 -8.71735904e-03 ... -9.18487310e-02
    -1.21810868e-01  5.06602265e-02]
   [ 7.18666986e-02 -8.50402638e-02 -6.08206615e-02 ...  1.45149365e-01
     3.13173085e-02 -7.11076185e-02]
   ...
   [ 2.86536086e-02 -2.89001912e-02 -1.50022041e-02 ... -3.80802751e-02
    -2.72477735e-02 -8.84274989e-02]
   [-6.24356568e-02 -1.13993421e-01  1.21108405e-01 ... -1.17144018e-01
     5.54803982e-02 -1.60714775e-01]
   [-1.03689417e-01  1.01234943e-01  4.58899885e-02 ...  1.90709606e-02
    -9.87725984e-03  1.05009951e-01]]

  ...

  [[ 1.14496879e-01 -4.08310108e-02  3.31066595e-03 ...  1.32299941e-02
     1.35832518e-01  1.63483486e-01]
   [-2.30079874e-01 -7.39073157e-02 -3.11102383e-02 ... -1.40812010e-01
    -2.07764879e-01  8.09284858e-03]
   [ 1.17114753e-01 -8.13680515e-02 -9.23384503e-02 ...  8.86953473e-02
     7.41693005e-02 -7.05179647e-02]
   ...
   [-4.12612259e-02 -5.09280525e-02 -3.36154215e-02 ... -6.94244280e-02
    -2.63882596e-02 -2.03160383e-02]
   [-1.72798112e-01 -9.94056612e-02  5.12222275e-02 ...  3.27961631e-02
     1.83434300e-02 -1.73117220e-02]
   [-2.32803915e-02  8.66349116e-02  3.73679772e-02 ... -7.55934939e-02
    -6.48734570e-02  2.72867344e-02]]

  [[ 1.17275663e-01 -1.41770570e-02 -1.48140034e-03 ...  1.59896836e-02
     1.13919616e-01  1.16772309e-01]
   [-1.77662760e-01 -1.16407268e-01 -3.17378864e-02 ... -1.22320354e-01
    -1.81262091e-01  3.44340950e-02]
   [ 1.65087301e-02 -8.30195025e-02 -8.19442272e-02 ...  1.55806718e-02
    -9.00928047e-04 -6.65413812e-02]
   ...
   [-7.57512748e-02 -1.34764770e-02 -5.49010709e-02 ... -6.43071383e-02
    -4.41361442e-02 -1.72458570e-02]
   [-1.50472760e-01  3.04908399e-03  6.00574128e-02 ...  5.08820079e-03
     4.62985551e-03  3.50626782e-02]
   [ 2.25119106e-02  8.66150633e-02  5.77303022e-03 ... -4.01334986e-02
    -7.95547292e-02 -1.74275506e-02]]

  [[ 1.12090126e-01 -4.65748310e-02  3.19070159e-03 ...  1.51578719e-02
     5.58245853e-02  8.97735804e-02]
   [-1.56908482e-01  8.95401288e-04  3.17743309e-02 ... -1.07303955e-01
    -1.14479512e-01 -4.49679010e-02]
   [ 1.63935497e-02 -3.95977981e-02 -9.20816809e-02 ... -4.37849760e-02
    -3.83135639e-02 -4.58036475e-02]
   ...
   [-6.28528446e-02  2.95861382e-02 -9.44443271e-02 ... -4.92578484e-02
    -4.75499965e-02  2.73271799e-02]
   [-6.42450452e-02  1.12012416e-01  1.51099609e-02 ...  3.17738876e-02
     2.05160510e-02  7.92514384e-02]
   [ 6.34302199e-02  8.53307173e-02  5.00147231e-02 ... -4.20864448e-02
    -5.07107116e-02 -6.23073541e-02]]]


 [[[ 6.15856461e-02  8.46074487e-04  1.24449106e-02 ...  6.14116676e-02
     1.20499216e-01  3.47933872e-03]
   [-9.88211706e-02 -2.26041730e-02 -1.39704198e-02 ... -5.22394255e-02
     6.88459259e-03 -3.57741416e-02]
   [ 1.02001913e-02 -5.50321955e-03 -5.47607131e-02 ...  1.21201091e-01
     1.14887599e-02 -1.12638921e-02]
   ...
   [ 2.63049193e-02 -3.86711061e-02 -1.33507267e-01 ... -3.68909761e-02
    -1.31594669e-02 -1.12760715e-01]
   [-6.50346163e-04 -5.61931804e-02  1.93669554e-02 ... -3.86369973e-02
     3.98494899e-02 -9.17549357e-02]
   [-5.59974164e-02  1.45915717e-01 -1.06711444e-02 ...  4.54185456e-02
    -1.18954936e-02  2.56176218e-02]]

  [[ 2.79651443e-03 -3.26364115e-03 -6.63725473e-03 ...  3.47228572e-02
     7.28729218e-02  3.81806754e-02]
   [-1.48547947e-01 -1.33565724e-01 -2.06968840e-02 ... -1.33886948e-01
    -8.78107622e-02 -1.06846308e-02]
   [ 6.30086139e-02 -3.91659215e-02 -4.19605561e-02 ...  1.66294187e-01
     6.50701895e-02 -5.82171679e-02]
   ...
   [-1.45450858e-02 -7.05481544e-02 -7.79179186e-02 ... -6.02970608e-02
    -3.30130830e-02 -1.06908329e-01]
   [-6.58769384e-02 -1.21586487e-01  9.71207619e-02 ... -1.55660078e-01
     5.73968962e-02 -7.40107372e-02]
   [-6.92037493e-02  1.37181252e-01 -4.09323815e-03 ... -1.22649167e-02
    -4.61916327e-02  2.95225065e-02]]

  [[ 3.20554636e-02 -1.64802000e-02  1.62198097e-02 ...  7.28484942e-03
     5.87476641e-02  1.15672320e-01]
   [-1.87142208e-01 -1.94678813e-01 -1.46340923e-02 ... -1.98400214e-01
    -1.25321940e-01 -1.40710897e-03]
   [ 8.67821649e-02 -1.23263849e-02 -7.99097642e-02 ...  2.03624517e-01
     8.78233388e-02 -7.69038200e-02]
   ...
   [ 1.73370913e-02 -5.39562330e-02  3.29258479e-02 ... -1.21863045e-01
    -5.20529167e-04 -1.38106778e-01]
   [-6.52857050e-02 -1.41232550e-01  1.07120074e-01 ... -1.73782632e-01
     5.51627912e-02 -1.73858419e-01]
   [-1.01208016e-01  9.04955789e-02  2.62521971e-02 ... -2.38182638e-02
    -8.28671828e-02  9.89330336e-02]]

  ...

  [[ 1.00628585e-01 -2.18778960e-02 -3.22814435e-02 ...  1.40163414e-02
     6.62103146e-02  1.55224562e-01]
   [-2.27540061e-01 -1.89452797e-01  2.54325252e-02 ... -6.68579340e-02
    -1.83440745e-01 -1.59073677e-02]
   [ 1.13443449e-01 -3.44952829e-02 -9.69565660e-02 ...  1.63029835e-01
     1.03008665e-01 -4.29719537e-02]
   ...
   [-4.08816487e-02 -4.97576073e-02 -7.92419165e-03 ... -9.27812457e-02
    -2.05019396e-02 -6.22776896e-02]
   [-1.68410555e-01 -8.75904933e-02  5.15898615e-02 ... -2.43056864e-02
    -1.86686311e-02 -6.12708926e-03]
   [ 3.17446999e-02  6.83817267e-02  7.33760521e-02 ... -1.00674391e-01
    -8.76927972e-02 -1.25176227e-02]]

  [[ 8.13828185e-02  2.52600689e-03  5.91446413e-03 ...  2.34582014e-02
     2.61558238e-02  6.48747012e-02]
   [-2.08717883e-01 -6.38504094e-03  4.14625928e-02 ... -4.78175543e-02
    -1.31873950e-01 -2.61319671e-02]
   [ 8.89726281e-02 -5.86843751e-02 -8.57193395e-02 ...  1.45637184e-01
     3.01160440e-02 -1.48676969e-02]
   ...
   [-7.83695653e-02 -2.73417868e-02 -4.14971728e-03 ... -5.58461733e-02
    -1.05761206e-02 -1.18767386e-02]
   [-1.05135694e-01  7.83807039e-03  3.10512707e-02 ... -1.46040162e-02
    -1.39733966e-05  2.14324910e-02]
   [ 5.69317117e-02  6.39840439e-02  7.58811086e-02 ... -6.71029016e-02
    -8.81781653e-02 -5.36329150e-02]]

  [[ 1.12165019e-01 -2.52538994e-02  5.13076447e-02 ...  2.67259050e-02
     7.81916380e-02  7.25178421e-02]
   [-1.49502099e-01 -3.70388143e-02  2.75454037e-02 ... -9.07241181e-02
    -9.69488770e-02 -4.07017693e-02]
   [ 6.52733296e-02 -2.34100595e-02 -8.73946175e-02 ...  1.69855002e-02
    -4.97361384e-02 -5.43570258e-02]
   ...
   [-4.84881736e-02  4.77822460e-02 -7.85061643e-02 ... -4.44211513e-02
     3.62174921e-02  2.04794481e-02]
   [-1.35151535e-01  7.26820379e-02  5.04228286e-02 ...  1.21084273e-01
     4.33791801e-02  1.22615919e-01]
   [ 3.45338210e-02  4.25426662e-02  7.58707076e-02 ... -2.48112325e-02
    -4.22561243e-02 -1.07822835e-01]]]


 ...


 [[[ 2.20190473e-02  6.33912953e-03 -5.36507070e-02 ... -2.42417734e-02
     4.18679267e-02  8.17545727e-02]
   [-1.58906341e-01 -6.80551082e-02 -3.72494310e-02 ... -5.03346436e-02
    -9.09343362e-02 -1.67804526e-03]
   [-8.83983746e-02 -1.76588651e-02 -7.42514655e-02 ...  1.07135391e-02
    -8.80962014e-02  7.44039342e-02]
   ...
   [-4.64207418e-02 -1.07182525e-01 -4.84706908e-02 ...  7.30703250e-02
    -1.13901822e-02 -5.56480661e-02]
   [-2.29189545e-02 -2.15924919e-01 -2.35677976e-02 ...  7.16533046e-04
    -4.80555892e-02 -1.03596531e-01]
   [-1.72938734e-01  1.26909152e-01  1.95246283e-02 ... -7.99983293e-02
    -1.54940620e-01 -3.62699218e-02]]

  [[ 6.92072883e-02  7.45353103e-03 -5.33030666e-02 ... -6.41153827e-02
     4.98538278e-02  1.31855398e-01]
   [-1.81223482e-01 -4.15554047e-02 -3.14300284e-02 ... -3.67669798e-02
    -1.18145727e-01 -5.04279919e-02]
   [ 1.71251837e-02  2.04329807e-02 -6.84821531e-02 ...  1.03732944e-01
     9.14719049e-03  4.21845317e-02]
   ...
   [ 2.13445467e-03 -6.19229265e-02 -1.97836924e-02 ...  1.19544387e-01
     9.87017527e-03 -7.89786577e-02]
   [-5.16204312e-02 -2.54132807e-01 -3.41294371e-02 ...  3.23922560e-02
    -4.27194685e-03 -7.22857118e-02]
   [-9.80508775e-02  1.66397467e-01  8.65903273e-02 ... -1.05164260e-01
    -1.82323664e-01 -5.40203322e-03]]

  [[ 4.94232811e-02 -2.24603005e-02 -6.04925267e-02 ... -7.78087154e-02
     2.16021221e-02  1.31198823e-01]
   [-1.38293117e-01 -7.35706836e-02 -4.85633640e-03 ...  3.88658345e-02
    -8.11638832e-02 -7.46721402e-03]
   [ 3.91794592e-02  2.64805481e-02 -4.76843938e-02 ...  1.65940970e-01
     6.81496784e-02  4.03053612e-02]
   ...
   [-3.53704067e-03 -2.16804557e-02  2.12397370e-02 ...  9.92226452e-02
    -4.26965486e-03 -3.73768248e-02]
   [-4.78346273e-02 -1.04516715e-01 -2.39478238e-02 ... -5.55191468e-03
     1.42839989e-02  4.96088853e-03]
   [-1.19078442e-01  1.21405333e-01  6.83906153e-02 ... -6.64860904e-02
    -1.40806004e-01  3.94156128e-02]]

  ...

  [[-6.35985881e-02  1.99299715e-02 -7.85663277e-02 ... -6.80678561e-02
    -4.10765633e-02 -4.70799804e-02]
   [-1.69488788e-01 -2.46847626e-02 -2.30847374e-02 ...  5.99832460e-02
     2.65558176e-02 -8.32372084e-02]
   [ 9.78224128e-02  1.18293436e-02 -3.84743623e-02 ...  1.36334077e-01
     1.02749288e-01  6.31199926e-02]
   ...
   [-6.88228235e-02 -8.01363736e-02  5.12732975e-02 ...  1.16329625e-01
     2.83952765e-02  8.49387422e-02]
   [-1.84912309e-02  2.35064719e-02 -1.08431540e-01 ...  6.22309484e-02
     6.46179244e-02  8.12067538e-02]
   [-4.17144224e-02  1.64393276e-01  1.01702511e-01 ...  4.31270152e-02
    -2.41935980e-02 -1.35354072e-01]]

  [[-4.56562415e-02  1.61895752e-02 -9.06476527e-02 ... -8.92940536e-03
    -1.04033150e-01 -1.26505986e-01]
   [-1.18725576e-01  9.05063283e-03 -1.22174090e-02 ...  5.45689315e-02
     1.49984984e-02  3.04034632e-02]
   [ 1.03243433e-01  3.76979336e-02 -5.60733210e-03 ...  6.82604760e-02
     8.93109962e-02  1.23988360e-01]
   ...
   [-8.41486380e-02  1.72244217e-02  4.98013869e-02 ...  1.38860196e-01
     1.36187356e-02  2.06286058e-01]
   [-4.34043631e-02  8.37297142e-02 -1.05260529e-01 ...  3.71822007e-02
     5.32772467e-02  1.59782320e-01]
   [ 4.55226470e-03  9.16833058e-02  8.58375058e-02 ...  8.09856206e-02
     1.50662018e-02 -1.62279189e-01]]

  [[-8.10113400e-02  1.11439852e-02 -8.32368210e-02 ...  3.52681205e-02
    -4.61105965e-02 -1.12183630e-01]
   [-5.73104210e-02  1.02582894e-01 -4.10357397e-03 ...  2.74733007e-02
     3.64963748e-02  1.02471989e-02]
   [ 6.88736737e-02  4.77395486e-03 -2.66877674e-02 ... -3.30608129e-03
     6.82655945e-02  9.66255888e-02]
   ...
   [-7.17216507e-02  5.71727380e-02  1.63384788e-02 ...  9.31654647e-02
     5.46126515e-02  2.15056866e-01]
   [ 1.27450107e-02  1.71214774e-01 -7.09647015e-02 ... -4.34209667e-02
     6.67335540e-02  1.22450210e-01]
   [ 4.26446646e-02  6.78603277e-02  8.05986524e-02 ...  6.21517934e-02
     3.27767245e-02 -9.73459855e-02]]]


 [[[ 7.01570958e-02  4.63386206e-03 -3.51325087e-02 ... -5.55032259e-03
     7.11718872e-02 -1.38360746e-02]
   [-5.62864952e-02  1.55569776e-03  9.72412061e-03 ...  4.33646934e-03
    -5.51769845e-02 -6.91394284e-02]
   [-1.09490484e-01  2.57717688e-02 -4.30838913e-02 ... -4.38008867e-02
    -7.78036937e-02  7.31304139e-02]
   ...
   [ 3.69222313e-02 -1.14223115e-01 -6.72514364e-02 ...  8.58735964e-02
     1.85597483e-02 -9.76186693e-02]
   [-2.12636944e-02 -1.58658490e-01 -5.53262308e-02 ... -1.39295524e-02
    -6.07096180e-02 -8.73804539e-02]
   [-1.28779605e-01  1.55849963e-01  5.75924292e-02 ... -8.77251662e-03
    -7.30505586e-02 -5.86941205e-02]]

  [[ 1.63388799e-03 -9.10735410e-03 -9.07906592e-02 ... -4.41307835e-02
     3.62551026e-02  1.64542105e-02]
   [-1.03679128e-01 -1.75932497e-02  9.09717288e-03 ...  4.53031808e-02
    -5.06887622e-02 -1.08208470e-01]
   [-4.09879163e-02  1.42994849e-02 -5.85630201e-02 ... -1.41194938e-02
    -9.25693847e-03  9.47324261e-02]
   ...
   [ 6.23225458e-02 -9.97219905e-02 -4.09943946e-02 ...  1.03412271e-01
     7.16529042e-02  1.68103408e-02]
   [ 1.77741572e-02 -1.16127796e-01 -5.66795766e-02 ...  2.35265922e-02
     3.31405178e-02 -7.22399577e-02]
   [-1.35587156e-01  6.06026128e-02  9.10223275e-02 ...  3.56144309e-02
    -7.03048334e-02  1.43960714e-02]]

  [[-2.46312749e-02  1.99876484e-02 -8.72757211e-02 ... -7.60524720e-02
    -6.82722628e-02  5.47591038e-02]
   [-5.81739955e-02  1.02976877e-02 -1.47347338e-02 ...  5.95591292e-02
    -4.99527715e-03 -1.65199377e-02]
   [-4.24484052e-02 -4.45933518e-04 -2.81098504e-02 ...  3.52039710e-02
     3.34370993e-02  2.59882640e-02]
   ...
   [ 2.61655729e-02 -2.20116284e-02  5.56926243e-03 ...  1.54218882e-01
     1.04606688e-01  2.10399106e-02]
   [-1.72696598e-02 -6.56535625e-02 -4.62248027e-02 ...  6.74881563e-02
    -2.02836357e-02 -6.67141303e-02]
   [-6.79240897e-02  1.03674702e-01  1.38896316e-01 ...  6.53329790e-02
    -1.43622234e-01 -2.95902900e-02]]

  ...

  [[-3.52039300e-02 -9.07433592e-03 -1.30015492e-01 ...  2.89807301e-02
    -7.76790529e-02 -1.02567732e-01]
   [-9.92114097e-02  1.07575124e-02 -2.54292265e-02 ...  2.78597083e-02
     4.59614322e-02 -1.17317820e-02]
   [ 1.30589694e-01  5.42083988e-04  9.19729751e-03 ...  2.50470545e-02
     1.64719611e-01  8.63179415e-02]
   ...
   [-1.72483269e-02  2.93270894e-03  2.80601289e-02 ...  1.35596037e-01
     4.00603414e-02  1.01782672e-01]
   [ 7.60845235e-03  6.30415231e-02 -8.92537981e-02 ...  2.59544840e-03
     8.37376639e-02  9.06930119e-02]
   [-6.25424385e-02  1.19137272e-01  7.82265365e-02 ...  4.39823046e-02
    -1.52898375e-02 -9.44916755e-02]]

  [[-5.07768206e-02 -2.05057915e-02 -1.66769311e-01 ...  3.24743278e-02
    -8.72360915e-02 -1.39170602e-01]
   [-1.10624202e-01  6.82905912e-02 -4.57950756e-02 ...  3.02962773e-02
    -2.24765129e-02 -3.06861438e-02]
   [ 3.28518711e-02  2.19875723e-02  4.34196641e-04 ...  6.99823769e-03
     5.68153821e-02  9.01290625e-02]
   ...
   [-1.51736019e-02  5.39244376e-02 -5.89729706e-03 ...  1.42088622e-01
     4.07197587e-02  9.75050777e-02]
   [ 6.50150925e-02  1.55762166e-01 -8.04770440e-02 ... -1.20967664e-01
     4.22899127e-02  1.12108976e-01]
   [-1.25766387e-02  1.07166193e-01  8.18079636e-02 ...  3.45618986e-02
     2.13032831e-02 -7.08663017e-02]]

  [[-1.12441890e-01  5.47067355e-03 -1.31927848e-01 ...  1.46835549e-02
    -7.41973072e-02 -1.07431300e-01]
   [-6.24821149e-02  1.35714278e-01 -2.73078214e-03 ...  1.86689459e-02
    -3.44484602e-03  1.76757853e-02]
   [ 3.69525403e-02  3.17328423e-02  4.78313630e-03 ... -1.59797017e-02
     4.25244980e-02  8.49185660e-02]
   ...
   [-3.21025588e-02  9.59656462e-02  2.61061378e-02 ...  7.37932185e-03
     4.85838614e-02  1.16924897e-01]
   [ 7.20385388e-02  1.35388613e-01 -5.98090105e-02 ... -1.23930767e-01
     1.14310943e-02  3.91924903e-02]
   [ 2.73173116e-02  1.21831439e-01  4.30147648e-02 ...  4.28849906e-02
    -1.09992716e-02 -7.68382922e-02]]]


 [[[ 9.70156863e-03  1.88759584e-02 -6.90770149e-02 ...  2.79031359e-02
     5.58011457e-02 -4.02061492e-02]
   [-1.94544755e-02  3.20965834e-02 -1.37988199e-02 ...  5.64803928e-02
     3.43128704e-02 -1.17558435e-01]
   [-9.05033275e-02  6.19350821e-02 -7.28994757e-02 ... -1.23583451e-01
    -9.61521193e-02  1.57343581e-01]
   ...
   [ 3.70608717e-02 -9.40364823e-02 -4.07523066e-02 ...  6.86720610e-02
     5.48763834e-02 -6.08055713e-03]
   [ 3.84752937e-02 -5.08475043e-02 -4.23285142e-02 ... -1.69201065e-02
     1.58183072e-02 -7.66720250e-02]
   [-7.38916248e-02  1.30777851e-01  7.05800951e-02 ...  4.62859012e-02
    -4.36890647e-02 -7.02456608e-02]]

  [[ 9.47671942e-03 -1.04970876e-02 -6.51782006e-02 ... -3.52386050e-02
     1.20265024e-04 -4.95243743e-02]
   [ 5.33185601e-02  3.87735851e-02 -9.02500562e-03 ... -1.11351404e-02
     3.81468497e-02 -1.12161912e-01]
   [-7.83601925e-02  3.77427228e-02 -5.20236194e-02 ... -1.37405455e-01
    -1.14903025e-01  1.63106069e-01]
   ...
   [ 2.84985285e-02 -1.87223721e-02 -4.24294285e-02 ...  8.83163661e-02
     7.95673132e-02 -1.84045278e-03]
   [ 1.40853217e-02 -4.90633957e-02 -2.45146770e-02 ...  4.83857580e-02
     5.53077608e-02 -1.22480243e-02]
   [-7.54143000e-02  1.06440052e-01  9.86277759e-02 ...  4.68543917e-02
    -5.14946319e-03 -3.33951414e-02]]

  [[-8.20065755e-03  2.89170444e-03 -7.05346316e-02 ... -4.45734113e-02
    -7.70440651e-03 -5.82670514e-03]
   [-1.34953558e-02  3.80887091e-02  7.13746808e-03 ...  2.12493632e-02
     2.85747591e-02 -7.27759227e-02]
   [-4.05102111e-02  4.94615957e-02 -5.44537753e-02 ... -1.13423251e-01
    -5.81226908e-02  1.23643868e-01]
   ...
   [-3.65131609e-02  1.08721927e-02  8.01831298e-03 ...  1.21876054e-01
     8.66586789e-02  3.55185755e-02]
   [ 6.70052245e-02 -2.22188793e-02 -5.09195998e-02 ...  7.52864257e-02
     7.22911134e-02  4.03004931e-03]
   [-1.03726402e-01  7.56939501e-02  8.21474567e-02 ...  5.36528602e-02
    -2.46691685e-02  2.66846810e-02]]

  ...

  [[-5.22067919e-02 -1.65221677e-03 -1.13261908e-01 ...  2.68945787e-02
    -7.46170506e-02 -2.25530416e-01]
   [-1.09056644e-01  8.69875699e-02 -4.13694121e-02 ... -2.97234505e-02
    -5.32035902e-02 -1.56452134e-02]
   [ 2.87400857e-02  1.98968351e-02  2.59202160e-02 ... -5.08856513e-02
     2.30993591e-02  1.52742386e-01]
   ...
   [ 7.77405277e-02  2.23941412e-02  1.61576625e-02 ...  1.41422287e-01
     6.25895411e-02  1.01639114e-01]
   [ 1.23958744e-01  1.74631372e-01 -1.15687311e-01 ... -7.49938339e-02
     1.17441028e-01  1.19465999e-01]
   [-5.60357869e-02  1.47679567e-01  9.26424041e-02 ...  2.34695077e-02
    -3.15091833e-02 -8.54926035e-02]]

  [[-8.47110674e-02 -2.46157013e-02 -1.47616461e-01 ...  2.90822182e-02
    -5.79919033e-02 -1.50254920e-01]
   [-1.65335909e-02  1.41015351e-01 -3.49359103e-02 ... -6.10853098e-02
    -3.94238681e-02 -8.80015716e-02]
   [ 4.87599559e-02  6.40046690e-03  2.21269000e-02 ... -3.75116281e-02
     1.00739961e-02  1.32411733e-01]
   ...
   [ 3.14097218e-02  6.98646232e-02 -1.61489286e-02 ...  4.05691266e-02
     8.14255700e-02  1.69461191e-01]
   [ 1.08363055e-01  1.75546765e-01 -1.12401657e-01 ... -9.56327468e-02
     1.40477913e-02 -8.98409169e-03]
   [-2.69235894e-02  8.73578489e-02  9.13314521e-02 ... -4.60026134e-03
    -3.49619426e-02 -1.13264300e-01]]

  [[-1.40251160e-01 -3.40619944e-02 -1.35412499e-01 ...  2.08897777e-02
    -3.83070409e-02 -1.34391621e-01]
   [-4.50358726e-02  1.40791878e-01 -8.19836929e-03 ... -6.40113950e-02
    -8.85291472e-02 -6.02344573e-02]
   [-1.60213280e-02  6.23095129e-03 -5.76321827e-03 ... -1.46198785e-02
    -1.20680910e-02  1.08249053e-01]
   ...
   [ 6.53769001e-02  8.20180848e-02  1.35354791e-02 ...  1.32976212e-02
     6.88966885e-02  8.14309567e-02]
   [ 1.42750680e-01  1.62551448e-01 -4.04692963e-02 ... -1.05563663e-01
     8.79170280e-03 -6.61262944e-02]
   [ 2.37876885e-02  1.64134175e-01  7.50922114e-02 ...  1.37965064e-02
    -1.03946505e-02 -9.54415575e-02]]]]
network/block_1/conv2d_2/bias:0
(64,)
[-1.91105777e-04 -1.67444080e-06 -1.92952871e-06  2.04254131e-04
  3.76521639e-05  4.28579689e-04  3.51119961e-05  1.24632439e-04
  2.65453218e-05 -2.05532357e-04 -4.18513664e-04 -1.81935276e-04
  7.55549627e-05  7.31329128e-05  1.82852047e-04 -1.15986266e-04
  6.70058507e-05 -9.01269523e-05  1.04841412e-04 -5.16696775e-04
  4.67525329e-04 -4.13839036e-04 -6.48975983e-05  3.92214803e-04
 -2.77543033e-04  4.57345071e-04 -1.23268052e-04  4.51522428e-05
 -4.13553033e-04  3.66969762e-04 -2.61305569e-04 -2.32644248e-04
 -2.25121956e-04 -2.64032627e-04 -3.94992472e-04  3.17047059e-04
 -1.21371551e-04 -1.10743502e-04 -4.99524940e-05 -3.97132135e-05
  1.63592398e-04  2.52448022e-04  7.15311471e-05 -6.70705049e-05
 -3.68453009e-04 -1.57809933e-04 -9.49669193e-05  1.46081584e-04
 -1.40225340e-04  2.56426429e-04 -3.31450952e-04  1.65422287e-04
 -1.04154875e-04  1.93994609e-04 -8.62462693e-05 -3.40833532e-04
  2.42653550e-04 -2.55278515e-04 -6.32072915e-05 -5.92114247e-06
 -2.75587779e-04  2.11104649e-04 -6.47864363e-05  4.12626949e-04]
network/block_1/batch_normalization_2/gamma:0
(64,)
[0.9108841  0.94230497 0.9910269  0.95308346 1.0885874  1.0546241
 0.85377216 1.0172349  0.9301316  0.94767475 0.9899218  0.9144562
 0.99417496 1.135102   0.92244434 0.9608855  0.88351274 0.9266986
 0.92278934 1.0863906  0.9840449  0.972915   0.90703326 1.0252583
 1.047876   1.056408   0.88139963 0.9207633  0.9414267  1.0005827
 1.0676829  1.0717714  1.0695559  1.0177045  1.0556523  0.9646591
 0.9045124  0.9681394  0.8514105  1.080356   1.0532496  0.92946345
 0.92695326 0.93134254 0.8883355  1.1332707  0.8312475  1.1045744
 1.0111431  0.9040505  1.0040268  1.1339117  0.96274036 0.9038124
 0.86424166 0.96613556 1.0473368  0.907638   0.9611845  1.0110885
 0.94654006 0.85123414 0.9313143  0.9853468 ]
network/block_1/batch_normalization_2/beta:0
(64,)
[-0.33901542 -0.31395027 -0.41787964 -0.22630462 -0.4865868  -0.5006111
 -0.42065805 -0.2986071  -0.18263544 -0.19566971 -0.24632314 -0.48519123
 -0.22744296 -0.48300833 -0.0889046  -0.45508882 -0.3573752  -0.12596865
 -0.24526408 -0.29627466 -0.5327144  -0.23938055 -0.44560328 -0.08186787
 -0.18194751 -0.21754639 -0.37912598 -0.24873616 -0.22039364 -0.22486578
 -0.36595696 -0.28041846 -0.3579475  -0.32081097 -0.33073667 -0.4092929
 -0.32915005 -0.19819003 -0.3495004  -0.34944257 -0.20522673 -0.08646483
 -0.30126157 -0.2667597  -0.2789098  -0.2913465  -0.2770489  -0.21317905
 -0.24344166 -0.18409689 -0.44183314 -0.30894145 -0.44650853 -0.44312516
 -0.22977404 -0.21387856 -0.28532588 -0.36476985 -0.24702199 -0.28789434
 -0.29354593 -0.4688305  -0.39671668 -0.26622579]
network/block_2/conv2d_3/kernel:0
(9, 9, 64, 32)
[[[[-5.65350167e-02 -5.83476610e-02 -2.69183256e-02 ... -1.00252740e-01
    -1.38976544e-01 -1.75249390e-02]
   [-4.18852344e-02 -9.60149318e-02  1.26008065e-02 ... -2.42666513e-01
    -5.02131460e-03  6.50235265e-02]
   [-6.18864000e-02 -3.05217989e-02  7.66979083e-02 ...  1.13121932e-02
    -1.70765981e-01  7.81806260e-02]
   ...
   [ 2.12422870e-02 -4.66925874e-02  1.86213031e-02 ... -8.31490979e-02
    -3.99542414e-02  3.77741978e-02]
   [-9.17490292e-03 -9.39506888e-02 -1.80645641e-02 ... -9.19508785e-02
    -2.16037273e-01  6.02071472e-02]
   [ 8.17493424e-02 -1.49892241e-01  2.46552136e-02 ... -2.78152479e-03
     1.88885722e-04  2.07467135e-02]]

  [[-4.14077528e-02 -5.62662594e-02 -1.28858918e-02 ... -1.16725884e-01
    -1.87717289e-01  4.01590392e-02]
   [ 1.35019319e-02 -8.81923735e-02 -3.31660919e-02 ... -1.35762736e-01
    -1.25911878e-02  1.80405639e-02]
   [-1.27422497e-01 -4.57480028e-02  3.47923264e-02 ...  3.39064957e-03
    -1.63044274e-01  1.00916483e-01]
   ...
   [-2.02830974e-03 -6.88451827e-02 -6.78734900e-03 ... -6.77640289e-02
    -1.27668723e-01  5.74366823e-02]
   [-8.14315751e-02 -1.32329658e-01 -2.96928827e-02 ... -6.96026608e-02
    -1.77633852e-01  1.41722530e-01]
   [-1.38574243e-02 -1.46194205e-01 -2.32202816e-03 ... -1.13845609e-01
     2.49646753e-01  4.91356254e-02]]

  [[-5.47539555e-02 -1.71853378e-01 -1.81743931e-02 ... -6.83897659e-02
    -1.31749392e-01  8.13379362e-02]
   [ 7.81052858e-02 -1.21617652e-01 -6.45366758e-02 ... -1.35345861e-01
    -7.10940883e-02  9.96845290e-02]
   [-1.02125444e-01  4.04934175e-02  3.45399529e-02 ...  4.26892415e-02
     5.34567982e-03  6.89063221e-02]
   ...
   [ 1.93037540e-02 -2.67131459e-02 -4.49822769e-02 ... -6.01203255e-02
    -5.17139211e-02  1.56413078e-01]
   [-1.83342192e-02 -1.81055646e-02  4.34679724e-02 ... -3.59534882e-02
    -1.05720989e-01  1.43037379e-01]
   [ 2.47667683e-03 -1.39857173e-01 -7.73559362e-02 ... -1.06618300e-01
     3.17315996e-01 -2.57388670e-02]]

  ...

  [[ 9.64373797e-02 -1.30856258e-03 -1.84308171e-01 ... -3.30375656e-02
    -1.84527170e-02 -4.49928828e-02]
   [ 5.77773228e-02 -4.60689887e-02 -5.38744256e-02 ... -4.68836054e-02
    -3.76108512e-02  9.58891660e-02]
   [-3.07581965e-02 -3.38924974e-02  5.27600087e-02 ...  9.06818211e-02
    -1.13213249e-02  3.55016142e-02]
   ...
   [ 1.45375729e-01  1.25358641e-01 -1.12130776e-01 ... -5.84346168e-02
    -5.83088994e-02 -9.21645090e-02]
   [ 1.17020972e-01  7.19436780e-02 -2.20364153e-01 ... -5.51387444e-02
     1.62454345e-03 -7.76150972e-02]
   [-1.78857183e-03  3.34919710e-03  8.33045691e-02 ... -5.48323542e-02
    -5.84457815e-02 -9.93681476e-02]]

  [[-4.29876335e-02  1.62199941e-02 -1.91419914e-01 ... -8.85368437e-02
    -3.85607071e-02 -1.00539699e-02]
   [-1.80348307e-02 -4.98515479e-02  2.23158598e-02 ... -8.17558616e-02
    -7.30217621e-02  6.50862837e-03]
   [-1.00591660e-01 -6.82055801e-02  4.95179854e-02 ...  9.56708863e-02
    -6.28073215e-02  5.35627306e-02]
   ...
   [ 6.83162808e-02 -5.15467254e-05 -9.02776048e-02 ... -7.88372606e-02
    -8.53132010e-02 -3.39559577e-02]
   [-1.25125526e-02  1.53924242e-01 -1.31636918e-01 ... -2.88604964e-02
    -9.16793942e-02 -6.41439110e-02]
   [ 6.06370019e-03  7.80035481e-02  7.39587024e-02 ... -4.21516038e-02
    -2.31462643e-02 -7.32344985e-02]]

  [[ 2.03379933e-02  1.45567834e-01 -1.65246114e-01 ... -7.69269243e-02
    -1.15320638e-01 -9.12048444e-02]
   [-3.38207819e-02 -5.33034001e-03  5.21780476e-02 ... -8.09847191e-02
     4.27631959e-02  4.10331823e-02]
   [-1.25099942e-01 -1.05485963e-02  1.53630972e-01 ...  4.84302547e-03
     3.52250077e-02  5.69912978e-02]
   ...
   [ 5.38464524e-02  3.10914665e-02 -1.04894117e-01 ... -8.74198973e-02
    -4.17346172e-02 -7.64524862e-02]
   [-2.65486483e-02  1.17202237e-01 -1.80248067e-01 ... -1.31214872e-01
    -4.34503630e-02 -7.27694705e-02]
   [ 1.10586118e-02  6.89356253e-02  5.72458357e-02 ... -1.69662982e-02
     1.61691420e-02 -9.40387845e-02]]]


 [[[-5.74588366e-02 -1.45454198e-01  1.38445627e-02 ... -6.44179955e-02
    -8.23077112e-02 -4.43461165e-02]
   [-5.31564876e-02 -8.12816396e-02 -6.27826303e-02 ... -1.73232183e-01
    -6.18097410e-02  4.13720161e-02]
   [-6.04412183e-02 -8.56931955e-02  6.31954893e-03 ...  1.97105445e-02
    -1.55124187e-01  4.89504896e-02]
   ...
   [ 9.40236449e-03 -1.25660956e-01  5.64038986e-03 ... -6.72825724e-02
    -8.96313414e-02  3.31289247e-02]
   [ 8.06662142e-02 -1.94084167e-01 -4.64172028e-02 ... -7.68899918e-02
    -2.51170397e-01  3.47976871e-02]
   [ 2.65198331e-02 -9.94929150e-02 -5.64646088e-02 ...  6.06209598e-03
     1.78054258e-01  3.04135028e-02]]

  [[-1.57448500e-01 -1.25070021e-01  3.06770252e-03 ... -9.40772668e-02
    -2.43320227e-01  8.91061947e-02]
   [ 1.61321089e-02 -1.11804262e-01 -4.75724898e-02 ... -7.87903965e-02
    -1.58546604e-02  3.32879908e-02]
   [-1.51914880e-01 -4.09030654e-02  3.51864360e-02 ... -1.23851895e-02
     9.72133037e-03  9.68620405e-02]
   ...
   [-4.87765223e-02 -6.40086383e-02 -4.05352786e-02 ... -9.34391990e-02
    -5.31461388e-02  7.65747279e-02]
   [ 2.91003883e-02 -1.93380773e-01  2.21322514e-02 ...  3.46040986e-02
    -1.35913581e-01  1.46317273e-01]
   [-1.11127838e-01 -4.51114886e-02 -4.25236411e-02 ...  1.69620775e-02
     2.83118188e-01  9.72521082e-02]]

  [[-6.05420806e-02 -1.80349946e-01  9.63303000e-02 ...  3.49232694e-03
    -1.91685185e-01  9.44632366e-02]
   [ 2.16761231e-03 -1.23762526e-01 -8.83988664e-02 ...  2.16008052e-02
    -2.79056132e-02 -1.00809382e-02]
   [-2.46093526e-01  5.58605455e-02 -3.48608270e-02 ...  3.21286693e-02
    -1.47595620e-02 -6.01084493e-02]
   ...
   [-1.29998578e-02 -1.00948103e-01 -9.10871197e-03 ... -9.65705663e-02
    -1.53841674e-01  1.35441974e-01]
   [ 1.32197747e-03 -2.80113101e-01 -3.96169014e-02 ...  5.54874539e-02
    -1.95032254e-01  1.15125939e-01]
   [-8.33598897e-02  1.69026125e-02  4.93238121e-02 ... -5.50800469e-04
     2.27844581e-01  5.81837595e-02]]

  ...

  [[ 3.46367694e-02  4.87056971e-02 -9.04728100e-02 ...  3.97524387e-02
     1.64936110e-02 -6.33028522e-02]
   [ 2.15062518e-02 -1.49111748e-01 -2.32894290e-02 ...  1.16015211e-01
    -4.51976694e-02  7.03437030e-02]
   [-1.39300540e-01 -5.89900762e-02 -9.03034583e-02 ...  7.75450766e-02
     2.31922492e-02 -5.80724999e-02]
   ...
   [ 8.35785344e-02  4.86206338e-02 -9.83675271e-02 ... -7.11130351e-02
    -2.83816531e-02 -2.69163530e-02]
   [ 4.40438688e-02  1.75428037e-02 -1.38609231e-01 ...  2.23544659e-03
     1.58334151e-02  1.38384784e-02]
   [-1.52486593e-01  2.11466104e-01 -4.63804156e-02 ... -2.40245461e-02
    -1.22123577e-01 -3.89583036e-02]]

  [[ 1.75330099e-02  8.75697136e-02 -1.38133526e-01 ... -1.21791326e-02
     6.22769119e-04 -4.75899540e-02]
   [-9.99085382e-02 -1.68765396e-01 -3.22178528e-02 ... -2.14732904e-02
    -5.11916615e-02  1.01166636e-01]
   [-1.50241643e-01  2.58982908e-02  1.89641248e-02 ...  5.66066951e-02
    -4.07203548e-02 -4.32887748e-02]
   ...
   [ 6.42031506e-02  6.17735162e-02 -9.49848816e-02 ... -7.15993047e-02
    -7.08952313e-03 -4.72457595e-02]
   [ 3.95402089e-02  1.10801011e-01 -1.55295089e-01 ... -7.19147027e-02
    -5.47117367e-02 -5.82494736e-02]
   [-4.59985435e-02  1.17602497e-01  1.24337282e-02 ... -5.25244549e-02
    -9.22228098e-02 -4.30187993e-02]]

  [[ 1.40667958e-02  5.03688604e-02 -1.19628221e-01 ... -5.97602455e-04
    -6.45759627e-02 -2.83946488e-02]
   [-1.69611406e-02 -1.04653358e-01  1.93844212e-03 ... -9.23289880e-02
     1.20008387e-01  4.31460962e-02]
   [-1.25943661e-01  2.00850982e-02 -6.62003004e-07 ...  4.98500392e-02
    -3.14916926e-03  1.34503460e-02]
   ...
   [-1.77004170e-02 -2.88567636e-02 -3.96474376e-02 ... -1.21857949e-01
     1.64632145e-02 -8.63729343e-02]
   [-5.03536426e-02  1.57214656e-01 -8.92441049e-02 ... -8.34667608e-02
    -2.14546211e-02 -2.09295079e-01]
   [-3.86069119e-02  4.04426530e-02 -3.30295488e-02 ... -1.30005181e-01
    -1.28895696e-02 -1.78063750e-01]]]


 [[[-1.19301587e-01 -2.30298609e-01  4.65212390e-02 ... -4.84313741e-02
    -1.02754936e-01 -7.77191715e-03]
   [-3.40351760e-02 -5.62209152e-02 -2.91187577e-02 ... -6.81876019e-02
    -3.57667208e-02  6.30593896e-02]
   [-1.05750807e-01  4.41129357e-02  6.37068450e-02 ...  2.55840831e-02
    -7.21300989e-02  1.21009901e-01]
   ...
   [ 1.69141646e-02 -1.71608791e-01  3.58648859e-02 ... -4.11594361e-02
    -2.17965487e-02  3.98305580e-02]
   [-2.36155707e-02 -2.14419842e-01 -2.98734326e-02 ... -2.93909982e-02
    -1.94271237e-01  8.27518627e-02]
   [-2.40284037e-02 -1.40212197e-02  2.65443791e-02 ... -3.53780738e-03
     2.68234223e-01  6.96546445e-03]]

  [[-1.13082670e-01 -2.04609379e-01 -5.76067716e-02 ...  2.19061710e-02
    -2.20817119e-01  1.31244436e-01]
   [-3.15085612e-02 -2.09330961e-01 -1.40977174e-01 ...  1.39754061e-02
    -7.62599111e-02 -4.67932038e-02]
   [-1.79408342e-01 -4.47245128e-02  2.59977784e-02 ...  1.93133596e-02
     6.80500194e-02  5.18872179e-02]
   ...
   [ 1.69525314e-02 -1.39120549e-01  4.86328499e-03 ... -1.17890969e-01
    -8.31863806e-02  1.02129087e-01]
   [ 4.30659205e-02 -2.36314133e-01  9.30338800e-02 ...  5.90328909e-02
    -1.33879468e-01  1.67124912e-01]
   [-8.61040503e-02  2.44097877e-02 -6.31135181e-02 ... -1.15410246e-01
     2.56020308e-01  1.66963097e-02]]

  [[-2.22270843e-02 -2.06530914e-01 -1.85747202e-02 ... -8.66219308e-03
    -1.43403113e-01  2.42261365e-01]
   [-2.44783163e-02 -1.42389804e-01 -1.09432042e-01 ...  6.09548874e-02
    -1.50286064e-01 -4.76808148e-03]
   [-1.77036941e-01  3.81178781e-02 -1.49178524e-02 ...  5.94946519e-02
     1.56370867e-02 -3.97691652e-02]
   ...
   [ 3.31539661e-02 -1.11488961e-01 -1.95789933e-02 ... -2.16096528e-02
    -2.25799996e-03  1.14402376e-01]
   [ 8.79678037e-03 -1.91203028e-01  5.48499823e-02 ...  1.57697611e-02
    -7.16690049e-02  1.94773003e-01]
   [-5.51046059e-02  4.72919829e-02 -1.83060542e-01 ... -8.53084624e-02
     2.74169713e-01 -3.03070787e-02]]

  ...

  [[ 2.60014646e-03  1.23671694e-02 -5.64605370e-02 ... -1.12541262e-02
     3.47909741e-02  4.85050790e-02]
   [-6.38415664e-02 -9.12369788e-02 -5.73485494e-02 ...  1.28719553e-01
     1.37150791e-02  1.37385456e-02]
   [-2.04453990e-01  2.45658234e-02 -6.46222904e-02 ...  1.61667187e-02
    -3.77760343e-02 -5.39585613e-02]
   ...
   [-3.56156230e-02 -3.89728579e-03 -7.37563521e-02 ... -9.52288955e-02
    -1.07233770e-01 -1.91399250e-02]
   [ 9.08754244e-02  1.19321413e-01 -1.17085181e-01 ... -5.75359678e-03
    -3.05300150e-02 -5.81122516e-03]
   [-1.37410134e-01  1.60838008e-01 -3.06523331e-02 ... -7.03819543e-02
    -1.38499632e-01 -2.25036129e-01]]

  [[-1.62025448e-02  3.09126955e-02 -1.27952129e-01 ... -3.27350236e-02
     5.72867841e-02 -9.08781663e-02]
   [-1.10750787e-01 -1.39648035e-01 -1.08791769e-01 ...  3.99196036e-02
     8.44638571e-02  4.91774231e-02]
   [-1.77084222e-01  2.19778679e-02 -7.37650096e-02 ...  3.55409682e-02
     7.14016240e-03 -4.29659151e-02]
   ...
   [ 1.23303924e-02  3.90347317e-02 -5.25957756e-02 ... -1.13782540e-01
    -2.43321378e-02  1.05495509e-02]
   [-3.95004172e-03  1.13838390e-01 -1.54097840e-01 ... -6.64202794e-02
     1.63909886e-02 -7.51993945e-03]
   [-4.27664965e-02  1.45117551e-01  3.48087437e-02 ... -1.35621086e-01
    -1.38014048e-01 -1.63180918e-01]]

  [[-3.16443257e-02  1.52463734e-01 -6.79084212e-02 ... -3.01462654e-02
     4.20606993e-02 -9.07844603e-02]
   [-4.41779867e-02 -2.37537920e-02  2.48732548e-02 ... -3.44374515e-02
     6.75924867e-02  2.98489537e-02]
   [-1.93045408e-01 -8.57254043e-02  9.30876732e-02 ...  4.25336398e-02
     9.93378647e-03  6.96832910e-02]
   ...
   [-8.95846449e-03  5.78394346e-02 -2.58792713e-02 ... -1.15857720e-01
     3.32385709e-04 -1.33726761e-01]
   [-9.23868567e-02  3.01113240e-02 -3.76604833e-02 ... -7.46206641e-02
     3.60720754e-02 -1.21618666e-01]
   [-2.52667395e-03  1.34450272e-01 -1.28079904e-02 ... -8.75258148e-02
    -7.04448149e-02 -1.98116034e-01]]]


 ...


 [[[-6.92407116e-02 -3.41534913e-02 -9.94338468e-02 ... -9.28254128e-02
    -9.07060876e-02 -8.13176557e-02]
   [-2.45699510e-02 -2.61612190e-03 -8.78337994e-02 ... -7.52405589e-03
    -3.20109390e-02  3.77936214e-02]
   [-2.31224373e-02 -5.52859157e-02 -1.04784649e-02 ...  3.04059908e-02
     6.60801381e-02 -6.15311321e-03]
   ...
   [-9.38742906e-02  1.02961451e-01 -1.88549515e-02 ... -8.01989436e-02
    -6.68912232e-02 -4.80481349e-02]
   [ 7.83102289e-02  2.65379101e-02 -7.18104094e-02 ... -5.99615052e-02
     8.35417211e-03  9.51409526e-03]
   [-9.19963866e-02 -4.08612229e-02  4.62147817e-02 ... -1.62303224e-01
    -2.52560917e-02  4.86933291e-02]]

  [[ 4.02639396e-02  1.41138984e-02 -2.27881204e-02 ... -7.72508159e-02
    -6.07697852e-02 -9.17293038e-03]
   [ 6.00439906e-02 -2.74974983e-02 -7.78771415e-02 ...  1.62889324e-02
     1.59631055e-02 -6.18023239e-03]
   [-9.85500440e-02 -1.11482717e-01  1.49474712e-03 ... -3.04092350e-03
    -2.61242017e-02 -6.63004145e-02]
   ...
   [-3.73534560e-02  1.40557498e-01 -9.25430190e-03 ... -1.76858250e-02
    -3.78679633e-02 -8.35074857e-03]
   [ 8.66214260e-02 -4.42908425e-03  2.22058147e-02 ... -3.99718173e-02
    -1.34780183e-02  1.14572411e-02]
   [-6.10878170e-02 -7.81351924e-02  4.77094762e-03 ... -1.99742794e-01
    -6.63907151e-04  2.75285020e-02]]

  [[-4.53208573e-02 -7.82807730e-03 -1.45801378e-03 ... -4.92054038e-02
     2.46261898e-02 -4.48185764e-02]
   [ 8.56727455e-03  3.17926146e-02 -4.52638231e-02 ... -6.12264499e-02
     8.77627432e-02 -5.03452942e-02]
   [-1.24418616e-01 -8.39450359e-02 -1.88392438e-02 ...  2.07084441e-03
     9.76298079e-02  8.97787884e-03]
   ...
   [-1.20851994e-02  1.07360616e-01 -6.33299723e-02 ...  3.92223299e-02
     4.21190709e-02  6.30752072e-02]
   [ 4.66817208e-02  6.97257891e-02 -2.27442943e-02 ... -5.41484775e-03
     9.05088633e-02  3.95097472e-02]
   [-8.26580897e-02  1.91319341e-04 -7.04510659e-02 ... -1.38243735e-01
    -1.11160919e-01 -1.05267484e-03]]

  ...

  [[-2.48006936e-02  8.94697756e-02 -1.05026457e-02 ...  4.52685505e-02
     1.97058290e-01  1.14298373e-01]
   [-3.81844565e-02 -8.48136544e-02  5.60376793e-03 ...  1.04955725e-01
     1.41257748e-01 -1.18358312e-02]
   [-1.63401902e-01 -9.49341282e-02 -5.50290272e-02 ... -3.64577249e-02
    -1.32959142e-01 -8.52862746e-02]
   ...
   [-3.52994949e-02  1.51217923e-01  7.71690975e-04 ... -2.90814675e-02
     2.09325235e-02 -2.70677004e-02]
   [-7.06897676e-02  6.72534257e-02  9.99210286e-04 ...  4.41277400e-02
     6.77136481e-02  9.31921881e-04]
   [-6.09481484e-02  1.72596604e-01 -2.90211141e-02 ... -1.12238623e-01
    -1.63339838e-01 -5.57319410e-02]]

  [[-2.14810390e-02  1.41115114e-01 -1.83481462e-02 ... -6.52944446e-02
     1.31083161e-01  2.93809939e-02]
   [-2.33383477e-03 -6.23653969e-03  6.97226450e-02 ...  3.14441845e-02
     6.80046827e-02  7.88549986e-03]
   [-8.40221867e-02 -1.25043124e-01 -3.15888859e-02 ... -2.53554434e-02
    -4.94344234e-02 -1.01200290e-01]
   ...
   [-1.39941633e-01  1.00249998e-01  9.79104778e-04 ...  4.59312499e-02
     2.80993301e-02 -2.28708964e-02]
   [-2.58622412e-02  6.29624799e-02 -4.64162640e-02 ...  8.36489536e-03
     9.22060534e-02 -9.67976451e-02]
   [ 1.97577477e-02  1.98885903e-01  7.12873191e-02 ... -4.41143140e-02
    -1.22637555e-01 -9.16039199e-02]]

  [[-2.95243636e-02  8.11034814e-02  3.78974006e-02 ... -8.37527066e-02
     3.73885445e-02 -7.05973431e-02]
   [-1.37067959e-01 -7.47195184e-02  3.30656469e-02 ... -2.22230554e-02
     1.75789177e-01  1.63070206e-02]
   [-8.05409998e-02 -1.41652733e-01  5.92430793e-02 ... -1.05357423e-01
    -2.29778960e-02 -5.67979459e-03]
   ...
   [-9.45823174e-03  8.91118273e-02  6.22808710e-02 ... -4.82802875e-02
     9.65984166e-02  2.54993457e-02]
   [-2.75390372e-02  5.06911427e-02 -2.17058081e-02 ... -4.93667200e-02
     1.30752875e-02 -2.22339388e-02]
   [ 5.38868010e-02  2.35555470e-02  1.17941000e-01 ... -5.98887727e-02
    -8.32758769e-02 -6.62972331e-02]]]


 [[[ 4.02010977e-02  8.38222913e-03 -8.65228474e-02 ... -8.14239234e-02
     6.86602434e-03 -1.49553478e-01]
   [ 4.49066190e-03  5.83598875e-02 -1.12809204e-01 ... -6.05284646e-02
    -4.75735702e-02 -5.10944091e-02]
   [-1.35989469e-02 -1.27981782e-01 -3.11007863e-03 ...  5.64585738e-02
    -6.21522404e-03 -5.21219224e-02]
   ...
   [-1.46986777e-02  1.09548219e-01  1.46877579e-02 ...  4.27381787e-03
     4.48156893e-02 -8.99588540e-02]
   [ 5.50849997e-02 -4.45714744e-04 -6.86515123e-02 ... -2.99066529e-02
    -2.27696393e-02 -1.12954080e-01]
   [ 2.10797717e-03 -1.25970811e-01  1.90248996e-01 ... -6.55193925e-02
     5.19089773e-02  8.92319977e-02]]

  [[ 2.32657436e-02 -6.63651526e-03 -6.96180761e-02 ... -7.55958557e-02
    -7.52051771e-02 -1.96128890e-01]
   [ 3.32447402e-02  4.05969992e-02 -7.09497333e-02 ... -1.21931704e-02
     3.44303846e-02  9.49456245e-02]
   [-7.09254295e-02 -1.14101730e-01  4.45300341e-02 ...  2.11227667e-02
     1.33542307e-02 -9.92716406e-04]
   ...
   [-6.89886883e-02  3.71181890e-02 -4.25763689e-02 ... -1.90832689e-02
     5.17954826e-02 -3.06976326e-02]
   [ 1.07066885e-01 -8.15690146e-04 -2.48741675e-02 ... -3.75661440e-02
    -5.85356578e-02 -6.41290769e-02]
   [ 5.73143084e-03 -1.97339132e-01  7.92570785e-02 ... -3.44993249e-02
     1.67906955e-02  9.14114341e-02]]

  [[ 2.24109627e-02 -1.42227868e-02 -3.12983170e-02 ...  2.25477591e-02
     4.01298553e-02 -5.44318445e-02]
   [ 1.19007910e-02  3.07409391e-02 -9.87704024e-02 ... -3.96621451e-02
     7.74355838e-03  2.27334369e-02]
   [-1.03413552e-01 -1.02836564e-01  1.86117496e-02 ...  2.59151831e-02
    -1.50536222e-03 -4.25556339e-02]
   ...
   [ 1.97474565e-03  4.27047610e-02 -3.96958627e-02 ...  2.33351369e-03
     1.11447133e-01 -1.37049347e-01]
   [ 4.03533131e-02  4.79780659e-02 -1.87832341e-02 ...  8.09490774e-03
     4.02928963e-02 -4.86800633e-02]
   [-2.67314538e-02 -2.25644056e-02 -6.67514373e-03 ... -1.53001547e-01
    -1.10664874e-01  1.19723938e-01]]

  ...

  [[-9.20510441e-02  6.98973164e-02  2.86933053e-02 ...  3.10126711e-02
     9.30988342e-02 -4.82530221e-02]
   [-9.54683796e-02  2.53273305e-02  2.24672025e-03 ...  8.81480277e-02
     1.81134343e-01 -1.35909906e-03]
   [-8.76016691e-02 -1.37809128e-01 -7.68128186e-02 ... -9.23282653e-02
    -1.21878289e-01 -1.22579619e-01]
   ...
   [ 9.44666751e-03  1.07810795e-01  3.27474512e-02 ...  3.73770073e-02
     1.16680823e-01 -1.34829223e-01]
   [ 3.87098156e-02  1.74030289e-01  3.30107026e-02 ...  1.00899532e-01
     2.58699507e-02 -1.19097404e-01]
   [ 9.77735296e-02  1.02218069e-01  9.97617841e-02 ... -2.11500991e-02
    -1.41948089e-01 -4.23878208e-02]]

  [[ 2.16456670e-02  6.65472001e-02  4.58733328e-02 ...  6.84648706e-03
     7.04628602e-02 -3.66054438e-02]
   [ 8.55309796e-03 -1.80568434e-02  4.04117443e-02 ...  2.28806641e-02
     1.54572278e-01  3.95033211e-02]
   [-8.78014341e-02 -1.35909423e-01 -3.84609662e-02 ... -7.01739714e-02
    -3.62859890e-02 -8.50694999e-02]
   ...
   [-2.34013796e-02  1.36150017e-01  3.54274772e-02 ... -7.85385594e-02
     6.29891604e-02 -3.81154083e-02]
   [ 1.84423965e-03  8.89545754e-02  2.02129781e-02 ...  2.21891236e-02
     8.46656784e-02 -1.32877573e-01]
   [ 3.27808298e-02  6.89408928e-02  1.14305608e-01 ...  1.68646704e-02
    -9.72982645e-02 -3.75190414e-02]]

  [[ 3.08414660e-02  1.36100352e-01 -1.02138622e-02 ... -9.29306448e-02
     1.33032573e-03 -6.65943995e-02]
   [-2.80796997e-02 -3.09893992e-02 -9.95715614e-03 ...  2.56051850e-02
     6.53292537e-02  6.00342155e-02]
   [-4.45939340e-02 -1.68248326e-01  6.82036653e-02 ... -4.26043980e-02
     2.47983467e-02 -7.90981203e-02]
   ...
   [ 8.61322358e-02  1.14481956e-01  1.07680216e-01 ... -6.27843365e-02
     9.85577777e-02  8.47428106e-03]
   [ 6.50768504e-02  3.73441055e-02  3.86044234e-02 ... -2.90163830e-02
     4.28869240e-02 -1.13465384e-01]
   [ 1.32269830e-01 -1.04449935e-01  7.84987360e-02 ... -8.60123858e-02
    -1.84487864e-01  2.32334472e-02]]]


 [[[ 7.87386298e-02 -4.01789360e-02 -9.29819047e-02 ... -1.04205087e-01
    -4.17957194e-02 -1.99174821e-01]
   [ 6.81408420e-02  2.00769883e-02  1.50327682e-02 ... -8.13901350e-02
     2.72864029e-02 -8.65494013e-02]
   [ 4.89840768e-02 -1.70017362e-01  1.40120490e-02 ... -1.58726778e-02
    -3.66752259e-02  1.79348476e-02]
   ...
   [-3.86620387e-02 -5.12125492e-02  2.78059021e-03 ...  1.21064335e-02
     5.42077273e-02 -5.91915809e-02]
   [ 9.55407992e-02 -8.54203999e-02  2.47830302e-02 ... -1.15297072e-01
    -7.28085265e-02 -3.22005115e-02]
   [ 8.26106295e-02 -1.37585714e-01  1.57586843e-01 ...  4.38279286e-03
    -8.89382437e-02  1.09210670e-01]]

  [[ 9.65430811e-02  1.12019228e-02  8.65901727e-03 ... -8.33804384e-02
    -4.33848016e-02 -1.85684025e-01]
   [ 1.78191084e-02  3.22409533e-02 -1.77663825e-02 ... -7.56597072e-02
     9.81745869e-02 -1.52960401e-02]
   [-3.57484780e-02 -3.91987525e-02 -5.78818331e-03 ... -4.51217666e-02
    -4.55845594e-02  5.61692715e-02]
   ...
   [-7.14519643e-04 -5.87024093e-02  1.71161555e-02 ... -5.27219437e-02
    -2.68381741e-03 -9.74981487e-02]
   [ 1.25543132e-01 -3.07132341e-02  1.00785019e-02 ... -2.09382009e-02
     7.09958822e-02 -3.29005457e-02]
   [ 1.50039360e-01 -4.07754518e-02  1.32034928e-01 ...  5.46530914e-03
    -4.37019318e-02  5.85604869e-02]]

  [[ 7.90488496e-02  1.00803733e-01  2.15012878e-02 ... -3.97227816e-02
    -4.68661636e-02 -1.04752615e-01]
   [ 1.15618818e-02  2.95970254e-02 -8.94347504e-02 ... -1.07741207e-01
     5.39597869e-02  8.55303779e-02]
   [-1.39164284e-01 -1.08944617e-01  3.79951745e-02 ... -1.23702334e-02
    -3.89758646e-02  3.83668393e-02]
   ...
   [ 4.44786698e-02 -7.47471442e-03  1.24661047e-02 ...  4.13054712e-02
     3.50809358e-02 -1.03645526e-01]
   [ 1.56599790e-01 -6.62286347e-03  1.37552638e-02 ...  3.81319504e-03
     1.49008051e-01 -5.21766534e-03]
   [ 2.08123341e-01 -1.74209382e-02  5.76739609e-02 ... -2.80789807e-02
    -1.25488862e-01  2.37900876e-02]]

  ...

  [[-5.27337268e-02  1.41821057e-01  3.58594507e-02 ... -1.75177883e-02
     1.09495437e-02 -7.33751506e-02]
   [-2.24785786e-02 -1.91404708e-02  4.24867682e-02 ... -4.64819036e-02
     7.93374628e-02  5.98432943e-02]
   [-4.60951589e-02 -1.81526154e-01 -1.76456477e-02 ... -7.82364979e-02
    -7.55438507e-02 -3.81155349e-02]
   ...
   [ 5.72710223e-02  1.01894610e-01  6.17467910e-02 ...  5.68041168e-02
     6.08971976e-02 -2.36989055e-02]
   [-2.86690034e-02  1.39517814e-01  6.38592914e-02 ...  2.83796322e-02
     3.10927741e-02 -1.32491857e-01]
   [ 1.11463852e-01  3.68623398e-02  9.33601409e-02 ... -1.11064054e-02
    -1.14054531e-01  2.75345687e-02]]

  [[-5.15691750e-02  9.67065617e-02  3.50262155e-03 ... -6.39829189e-02
     1.11582484e-02 -1.01772100e-01]
   [-7.35896127e-03 -1.28559321e-01  1.94964539e-02 ... -3.09508052e-02
     1.03258919e-02  5.09213982e-03]
   [ 9.13752615e-03 -1.16585232e-01 -1.49061289e-02 ... -5.11314161e-02
    -4.62192781e-02 -5.38931526e-02]
   ...
   [ 4.11592536e-02  8.19979906e-02  1.32526487e-01 ...  8.88577197e-03
     5.88125177e-02 -6.78614620e-03]
   [ 7.30677415e-03  7.88040012e-02  4.30312566e-02 ...  1.45718418e-02
     7.34555349e-02 -6.24392815e-02]
   [ 9.92095470e-02 -7.65049383e-02  1.00872777e-01 ... -4.47418308e-03
    -1.41363159e-01 -6.23071454e-02]]

  [[-1.30062997e-02  5.13467677e-02  2.12020380e-03 ... -4.71789911e-02
    -5.23417108e-02 -1.47492230e-01]
   [-6.13113791e-02 -6.09634258e-02 -6.20373301e-02 ... -9.46528390e-02
     3.31298225e-02  3.72934490e-02]
   [ 8.02919343e-02 -9.05158594e-02  5.57757840e-02 ... -4.56841774e-02
    -1.74337476e-02 -3.95051613e-02]
   ...
   [ 6.78440109e-02  1.03333831e-01  1.98164627e-01 ... -2.38276273e-02
     2.95362044e-02 -5.90180606e-03]
   [ 2.19128206e-02  4.53762263e-02  7.98856989e-02 ... -1.09210372e-01
    -5.02265580e-02 -5.23716621e-02]
   [ 9.68537554e-02 -2.01285079e-01  4.45333086e-02 ... -2.45914701e-02
    -4.78003211e-02  3.37274023e-03]]]]
network/block_2/conv2d_3/bias:0
(32,)
[-3.6331269e-06 -2.5714366e-04 -1.5894335e-04  6.3133237e-05
 -2.6208113e-04  3.0939656e-04  3.2117483e-04 -1.2682108e-04
 -4.9274671e-04 -6.7920453e-05  6.0606806e-04  6.6816993e-04
 -3.2158725e-05 -1.1838253e-03  5.2289375e-05  4.0995568e-05
 -2.6730532e-04  2.3653437e-04 -1.6712678e-04  1.7623695e-05
  1.2847249e-04  1.5784186e-04 -1.5730828e-04 -3.0421617e-05
  1.8550974e-05  7.9526835e-05  3.3995591e-05  1.3526957e-04
 -3.4511522e-05 -1.4145394e-04 -3.6877030e-04 -5.5650329e-05]
network/block_2/batch_normalization_3/gamma:0
(32,)
[0.8606591  0.9416574  0.8350905  0.8504869  0.89156085 1.1051531
 1.0314326  0.7733924  0.83211565 0.7082908  0.8416575  0.86148566
 0.8209821  1.2187585  0.8384588  0.84388465 0.8842086  0.98729485
 0.91645455 0.88584316 0.83291376 0.8871743  0.8413263  1.0920826
 0.76700735 0.8703224  0.97763133 0.9465524  0.70150405 0.87527585
 1.1395051  0.89504194]
network/block_2/batch_normalization_3/beta:0
(32,)
[-0.4529558  -0.5752262  -0.40866342 -0.43663043 -0.68606704 -0.72819
 -0.7023783  -0.615718   -0.6021277  -0.6191258  -0.48754162 -0.52074105
 -0.6645535  -0.7518557  -0.48092943 -0.50504065 -0.41281986 -0.6650486
 -0.6581842  -0.8320411  -0.39244348 -0.48973107 -0.53061134 -0.6235273
 -0.74018824 -0.7541259  -0.55911684 -0.72606254 -0.52904844 -0.5437778
 -0.6899195  -0.6158985 ]
network/dense/kernel:0
(46208, 128)
[[ 0.00851502 -0.00220409 -0.05871333 ... -0.00828926  0.00049
   0.0966013 ]
 [-0.00334018 -0.01176727 -0.02434116 ...  0.00904139  0.00187354
   0.05999592]
 [ 0.01097642  0.00147267 -0.07185706 ... -0.00767291 -0.01830973
   0.15476567]
 ...
 [ 0.00852938  0.00379435  0.15997605 ... -0.00173435 -0.00575084
  -0.06895091]
 [ 0.00617698 -0.00203616  0.0861548  ...  0.0083258  -0.01050923
  -0.21218805]
 [ 0.01528936 -0.00157938 -0.06422575 ... -0.0143012  -0.01100421
  -0.07933311]]
network/dense/bias:0
(128,)
[-5.97077608e-03 -5.94801549e-03  3.30416635e-02 -3.40546705e-02
  7.41537735e-02 -6.00368343e-03 -5.99814299e-03 -5.98692242e-03
 -5.55111933e-03  1.10884063e-01  5.01066707e-02 -6.00311393e-03
 -5.99720748e-03  1.35862082e-01  2.21360568e-02 -5.98639203e-03
 -5.97381406e-03 -5.99836465e-03 -1.27562648e-02  1.41677812e-01
 -6.00508926e-03 -4.57720384e-02 -3.44541133e-03  4.41672243e-02
 -5.99620631e-03  2.43877284e-02  6.46258369e-02 -3.44422236e-02
 -6.00291509e-03 -5.99844428e-03 -4.25132513e-02 -3.60013284e-02
  6.49679899e-02  5.51332347e-02 -3.76143083e-02  5.13815135e-03
  7.78895915e-02 -5.53364540e-03  5.75731210e-02 -3.08103859e-06
  3.45893614e-02 -6.00433489e-03  1.10164277e-01  5.97132137e-03
 -5.11892028e-02 -5.99258812e-03 -5.91083337e-03  4.36501727e-02
  2.31058635e-02 -2.50368305e-02 -2.09106761e-03 -5.97850420e-03
  4.90682498e-02  1.43425176e-02 -5.97982761e-03 -6.00308739e-03
 -2.81930473e-02 -5.98862860e-03 -5.99521631e-03  6.35586157e-02
  4.01074849e-02 -6.00115443e-03 -5.99896628e-03  3.19103375e-02
 -5.99529035e-03 -5.99636650e-03 -6.00141753e-03  1.22534977e-02
 -6.00280939e-03 -2.06067367e-03 -5.99790039e-03  5.96318720e-03
  5.70475310e-02 -5.12604415e-03 -6.00133836e-03 -2.23579314e-02
 -6.50056079e-02 -6.00211322e-03  4.14504856e-02  9.65893939e-02
  4.91089113e-02  4.50811870e-02 -2.61894602e-04 -5.33986166e-02
  6.52429685e-02 -6.06025103e-03 -5.99874649e-03  1.24710947e-04
  7.96400830e-02  8.56166780e-02 -6.00169972e-03  6.37165681e-02
  9.49773490e-02  6.54680431e-02 -2.14708727e-02 -1.48940217e-02
 -5.99726476e-03 -5.99628361e-03  7.96275735e-02  6.75680265e-02
  3.70847099e-02 -5.54490229e-03 -3.69833154e-03  1.75838366e-01
  1.54704168e-01 -7.91599788e-03  1.18025638e-01  1.72484796e-02
  7.15972707e-02 -5.96452830e-03 -6.00343989e-03  1.14058696e-01
 -5.98431798e-03 -6.00211928e-03  7.70526156e-02 -5.99791901e-03
 -5.99600235e-03 -2.52063330e-02 -6.00254815e-03  1.09903114e-02
 -5.98141737e-03 -5.92291728e-03  8.94260406e-03  9.69603956e-02
 -5.99545008e-03 -6.00128621e-03 -7.20659597e-03  2.02566981e-01]
network/batch_normalization_4/gamma:0
(128,)
[0.9939971  1.0060024  1.1898841  1.0281005  1.278351   0.9939956
 1.0059979  0.99399745 0.9944667  1.2582954  1.2317263  1.0060025
 0.99399793 1.1788528  1.1099877  1.0060034  1.0060042  0.99400127
 0.79214686 1.3280628  0.9939965  0.95662814 0.9972186  1.0709445
 0.9939957  1.1938314  1.272147   0.9914288  0.99399626 0.9939965
 1.0611249  1.2963289  1.3257251  1.2202162  1.0032958  1.1592374
 1.1923622  0.9977818  1.2867433  0.99403954 1.0991176  0.99400336
 1.1334304  1.0060014  0.9902495  1.0060029  0.99399793 1.1001276
 1.2511418  0.990118   1.0017061  1.0059745  1.1384343  1.1584947
 0.99399924 0.993999   0.97923297 1.0060029  1.0060009  1.1202735
 1.1254406  0.9939957  0.9939961  1.2546557  0.9939958  0.9939979
 0.9939971  1.006518   0.99399537 1.1598314  1.0059923  1.19829
 1.2482175  0.9949325  0.99401796 0.95904046 1.108512   0.9939956
 1.1871837  1.2173687  1.1627594  1.1855403  1.1623805  1.1127994
 1.309284   0.96416014 0.9940202  1.0062481  1.1914526  1.2404292
 1.0059992  1.1307795  1.1540565  1.1769184  1.2613653  0.97345376
 1.006003   0.99399537 1.170554   1.0851233  1.0972304  0.99444395
 1.0008043  1.2637601  1.2122761  0.99354905 1.1329615  1.2091076
 1.1554211  1.0060014  0.99400485 1.21711    0.99399817 0.994
 1.3230255  1.0060023  0.9939986  1.2452185  0.9942224  1.1918026
 0.9939965  0.99518317 0.9951977  1.1098096  0.9939958  0.9939965
 1.0084444  1.2635825 ]
network/batch_normalization_4/beta:0
(128,)
[-3.09218131e-02  7.56450519e-02 -1.12085156e-02  1.31845996e-02
  1.30602404e-01 -1.41861849e-02 -1.73793305e-02  9.95226856e-03
 -9.10919905e-02  1.37489304e-01 -6.53474182e-02 -1.49297267e-02
  4.35824171e-02 -4.47244681e-02 -4.75295372e-02  5.50052524e-03
  1.31878015e-02 -2.21870039e-02  4.76273242e-03 -1.33642197e-01
 -1.94024213e-03  4.65698866e-03 -6.64314674e-03  6.78471923e-02
  6.04995228e-02 -1.75259635e-02  1.65547654e-01 -1.31897191e-02
  1.79960625e-06 -1.07571494e-03  9.91486758e-02  5.56901991e-02
  1.71538159e-01 -7.44249532e-03  6.83985790e-03 -4.36595716e-02
  5.58557585e-02  9.04814824e-02  2.36184187e-02  2.81503890e-03
  3.52919362e-02  1.60454623e-02 -1.43858388e-01 -1.00859320e-02
 -2.17452645e-02  8.76187440e-03 -1.13597400e-02  5.16703315e-02
 -8.88998508e-02 -1.62229389e-02  3.53274168e-03 -2.31274739e-02
  5.03102727e-02  2.45546643e-03 -6.06938917e-03  1.91585161e-02
  5.13123209e-03  6.49293587e-02  6.26356974e-02 -1.32928081e-02
  3.24682193e-03 -5.62392455e-03 -3.97785343e-02  9.67317969e-02
  8.95238202e-03 -1.37927625e-02  1.28792436e-03  6.06977902e-02
 -9.85842850e-03 -2.70862039e-02 -4.21681441e-02  8.42022598e-02
 -1.49992593e-02  6.54256046e-02  1.66189186e-02  1.22340292e-01
 -1.60023291e-03 -1.68384574e-02  4.83151302e-02  1.22557864e-01
  3.01216673e-02  1.21833809e-01 -1.64863653e-02  4.31613624e-02
  3.27653028e-02  6.23481534e-03 -2.40288284e-02  8.72766040e-03
  8.84643197e-02  2.04179231e-02 -1.85561813e-02  3.34162563e-02
  2.75906436e-02 -6.38599694e-02  1.13477260e-01  1.00861362e-03
 -1.52562587e-02 -2.98980586e-02 -4.95731458e-03 -1.30874276e-01
  5.11500835e-02 -9.33522731e-03 -1.30050750e-02 -1.21051352e-02
  3.82821746e-02  1.64131224e-02 -4.98714820e-02  5.93835628e-03
 -3.04351989e-02  4.35765423e-02 -8.26637596e-02 -8.00967123e-03
 -2.67266184e-02  7.01498659e-03 -6.95397612e-03 -1.99373043e-03
  4.68281917e-02  3.20543386e-02 -1.98112358e-03  6.26619533e-02
 -1.88547168e-02  2.12663668e-03 -1.76816024e-02 -1.60788331e-04
 -2.92377826e-02  2.56651249e-02  7.00353086e-03 -6.36293814e-02]
network/dense_1/kernel:0
(128, 128)
[[ 0.08236092  0.08783959  0.1169216  ... -0.02628407  0.12185463
   0.10265737]
 [-0.20283516 -0.11771511  0.04008978 ... -0.02417275 -0.06928225
  -0.00361195]
 [-0.09154227 -0.03994237 -0.04780125 ... -0.08735783  0.2832509
   0.06110299]
 ...
 [-0.18282402 -0.1404147   0.02965172 ...  0.1058615  -0.15659355
  -0.13462567]
 [ 0.01606203 -0.1083478  -0.05304156 ...  0.07441118 -0.10148042
  -0.12849458]
 [ 0.02813436  0.19188367 -0.23407985 ... -0.16214736 -0.14536357
  -0.25265008]]
network/dense_1/bias:0
(128,)
[-0.07220921 -0.07681955 -0.01089792 -0.06548697 -0.157196   -0.06675629
 -0.07688046 -0.13650529 -0.08919168  0.00251573 -0.06228453 -0.11537081
 -0.04928096 -0.08303329  0.01486088 -0.05655718 -0.06709867 -0.03872223
 -0.22521116 -0.15030931 -0.14429294 -0.07743958 -0.14850403 -0.12942475
 -0.03721652 -0.18235107 -0.07081726 -0.00778894 -0.10196188 -0.05838072
 -0.09471822 -0.16226953  0.00365523 -0.14567856 -0.01315566 -0.03980944
 -0.01913783 -0.04954907 -0.11072288 -0.0890393  -0.10265704 -0.15482955
 -0.07414652  0.02544511 -0.18483222  0.00154706  0.05006678 -0.05235004
 -0.05953251 -0.04457806 -0.07958376 -0.12903337 -0.03161477 -0.01763093
 -0.17186345 -0.06389519 -0.19114564  0.00651483 -0.15483484 -0.18296269
 -0.04477999 -0.12480707 -0.07740267 -0.1089913  -0.13052343 -0.03756389
 -0.1224393  -0.08471409 -0.03381489 -0.03116661 -0.12557675 -0.11443884
 -0.06048676 -0.0622397   0.01564688 -0.15110971 -0.15909873 -0.22495355
 -0.12051506 -0.06212902 -0.0657293  -0.11236353 -0.12836882 -0.19047973
 -0.11890355 -0.10803004 -0.0509873  -0.0760171  -0.15148371 -0.11686832
 -0.14854544 -0.11685628 -0.11472768 -0.05078771 -0.04342309 -0.14286375
 -0.12680648 -0.02848623  0.00817693 -0.02541379 -0.05089948 -0.03291833
 -0.04132213 -0.13710059 -0.00813169 -0.05934003 -0.0911392  -0.04447228
 -0.03509319 -0.00488858 -0.1540497   0.01794258 -0.01608313 -0.12625387
 -0.13883172 -0.05816607 -0.17149936 -0.05226957  0.01583625 -0.03937469
 -0.09719393 -0.12189161 -0.13554741 -0.03434999 -0.1068328  -0.01452032
 -0.11368884 -0.0191271 ]
network/dense_2/kernel:0
(128, 128)
[[ 0.0526789   0.07631402  0.10298786 ...  0.11614817 -0.1889059
   0.13783434]
 [ 0.01352004 -0.29353902 -0.11205166 ...  0.30504116  0.00286848
   0.09224816]
 [ 0.1432068  -0.15010479 -0.25887904 ...  0.04889167 -0.16823114
  -0.00263595]
 ...
 [-0.17453359  0.20123728  0.16240348 ...  0.24105838 -0.07678404
   0.04257623]
 [ 0.08881576 -0.12661617 -0.07400914 ... -0.20391221 -0.2228177
  -0.08596862]
 [-0.00901041  0.01008452  0.05463322 ...  0.05098962  0.16647492
   0.17170165]]
network/dense_2/bias:0
(128,)
[ 0.12469115  0.01131999  0.04147177  0.04592289  0.00049567  0.01452849
  0.05944812 -0.05608239 -0.00821385  0.05674164  0.03215785 -0.00735235
  0.00204264 -0.01456528  0.01799701 -0.03942671 -0.01107775  0.03565348
  0.01041134  0.04494406  0.04214189 -0.04934596 -0.00223908  0.05802301
  0.03795931  0.11925241 -0.03310165 -0.00564159  0.07078078  0.05566646
  0.02568265  0.00854733  0.07615484 -0.02793914  0.10202067 -0.06978829
  0.07490876 -0.00976598  0.13338827  0.07044615  0.1055814  -0.0015441
